{"learner":{"attributes":{},"feature_names":[],"feature_types":[],"gradient_booster":{"model":{"cats":{"enc":[],"feature_segments":[],"sorted_idx":[]},"gbtree_model_param":{"num_parallel_tree":"1","num_trees":"200"},"iteration_indptr":[0,1,2,3,4,5,6,7,8,9,10,11,12,13,14,15,16,17,18,19,20,21,22,23,24,25,26,27,28,29,30,31,32,33,34,35,36,37,38,39,40,41,42,43,44,45,46,47,48,49,50,51,52,53,54,55,56,57,58,59,60,61,62,63,64,65,66,67,68,69,70,71,72,73,74,75,76,77,78,79,80,81,82,83,84,85,86,87,88,89,90,91,92,93,94,95,96,97,98,99,100,101,102,103,104,105,106,107,108,109,110,111,112,113,114,115,116,117,118,119,120,121,122,123,124,125,126,127,128,129,130,131,132,133,134,135,136,137,138,139,140,141,142,143,144,145,146,147,148,149,150,151,152,153,154,155,156,157,158,159,160,161,162,163,164,165,166,167,168,169,170,171,172,173,174,175,176,177,178,179,180,181,182,183,184,185,186,187,188,189,190,191,192,193,194,195,196,197,198,199,200],"tree_info":[0,0,0,0,0,0,0,0,0,0,0,0,0,0,0,0,0,0,0,0,0,0,0,0,0,0,0,0,0,0,0,0,0,0,0,0,0,0,0,0,0,0,0,0,0,0,0,0,0,0,0,0,0,0,0,0,0,0,0,0,0,0,0,0,0,0,0,0,0,0,0,0,0,0,0,0,0,0,0,0,0,0,0,0,0,0,0,0,0,0,0,0,0,0,0,0,0,0,0,0,0,0,0,0,0,0,0,0,0,0,0,0,0,0,0,0,0,0,0,0,0,0,0,0,0,0,0,0,0,0,0,0,0,0,0,0,0,0,0,0,0,0,0,0,0,0,0,0,0,0,0,0,0,0,0,0,0,0,0,0,0,0,0,0,0,0,0,0,0,0,0,0,0,0,0,0,0,0,0,0,0,0,0,0,0,0,0,0,0,0,0,0,0,0,0,0,0,0,0,0],"trees":[{"base_weights":[-7.544897E-3,9.949186E-2,-7.951742E-2],"categories":[],"categories_nodes":[],"categories_segments":[],"categories_sizes":[],"default_left":[0,0,0],"id":0,"left_children":[1,-1,-1],"loss_changes":[1.3524828E3,0E0,0E0],"parents":[2147483647,0,0],"right_children":[2,-1,-1],"split_conditions":[2E0,9.949186E-2,-7.951742E-2],"split_indices":[40,0,0],"split_type":[0,0,0],"sum_hessian":[4.258018E2,1.8813368E2,2.3766812E2],"tree_param":{"num_deleted":"0","num_feature":"41","num_nodes":"3","size_leaf_vector":"1"}},{"base_weights":[9.566842E-3,-7.523758E-2,9.477917E-2],"categories":[],"categories_nodes":[],"categories_segments":[],"categories_sizes":[],"default_left":[0,0,0],"id":1,"left_children":[1,-1,-1],"loss_changes":[1.2114061E3,0E0,0E0],"parents":[2147483647,0,0],"right_children":[2,-1,-1],"split_conditions":[4.5525643E-1,-7.523758E-2,9.477917E-2],"split_indices":[11,0,0],"split_type":[0,0,0],"sum_hessian":[4.221587E2,2.3426501E2,1.8789366E2],"tree_param":{"num_deleted":"0","num_feature":"41","num_nodes":"3","size_leaf_vector":"1"}},{"base_weights":[2.1534989E-2,9.0721674E-2,-7.168484E-2],"categories":[],"categories_nodes":[],"categories_segments":[],"categories_sizes":[],"default_left":[0,0,0],"id":2,"left_children":[1,-1,-1],"loss_changes":[1.1053065E3,0E0,0E0],"parents":[2147483647,0,0],"right_children":[2,-1,-1],"split_conditions":[2E0,9.0721674E-2,-7.168484E-2],"split_indices":[40,0,0],"split_type":[0,0,0],"sum_hessian":[4.21641E2,1.8879358E2,2.328474E2],"tree_param":{"num_deleted":"0","num_feature":"41","num_nodes":"3","size_leaf_vector":"1"}},{"base_weights":[-2.8361328E-2,8.716301E-2,-7.069255E-2],"categories":[],"categories_nodes":[],"categories_segments":[],"categories_sizes":[],"default_left":[0,0,0],"id":3,"left_children":[1,-1,-1],"loss_changes":[1.0520087E3,0E0,0E0],"parents":[2147483647,0,0],"right_children":[2,-1,-1],"split_conditions":[2E0,8.716301E-2,-7.069255E-2],"split_indices":[40,0,0],"split_type":[0,0,0],"sum_hessian":[4.265889E2,1.8709406E2,2.3949484E2],"tree_param":{"num_deleted":"0","num_feature":"41","num_nodes":"3","size_leaf_vector":"1"}},{"base_weights":[1.19530875E-2,8.402816E-2,-6.618814E-2],"categories":[],"categories_nodes":[],"categories_segments":[],"categories_sizes":[],"default_left":[0,0,0],"id":4,"left_children":[1,-1,-1],"loss_changes":[9.286678E2,0E0,0E0],"parents":[2147483647,0,0],"right_children":[2,-1,-1],"split_conditions":[2E0,8.402816E-2,-6.618814E-2],"split_indices":[40,0,0],"split_type":[0,0,0],"sum_hessian":[4.1467105E2,1.8424693E2,2.304241E2],"tree_param":{"num_deleted":"0","num_feature":"41","num_nodes":"3","size_leaf_vector":"1"}},{"base_weights":[-7.505821E-3,8.1262894E-2,-6.350166E-2],"categories":[],"categories_nodes":[],"categories_segments":[],"categories_sizes":[],"default_left":[0,0,0],"id":5,"left_children":[1,-1,-1],"loss_changes":[8.5995795E2,0E0,0E0],"parents":[2147483647,0,0],"right_children":[2,-1,-1],"split_conditions":[2E0,8.1262894E-2,-6.350166E-2],"split_indices":[40,0,0],"split_type":[0,0,0],"sum_hessian":[4.151687E2,1.8091415E2,2.3425455E2],"tree_param":{"num_deleted":"0","num_feature":"41","num_nodes":"3","size_leaf_vector":"1"}},{"base_weights":[2.9279087E-2,7.8793354E-2,-5.969887E-2],"categories":[],"categories_nodes":[],"categories_segments":[],"categories_sizes":[],"default_left":[0,0,0],"id":6,"left_children":[1,-1,-1],"loss_changes":[7.6505005E2,0E0,0E0],"parents":[2147483647,0,0],"right_children":[2,-1,-1],"split_conditions":[2E0,7.8793354E-2,-5.969887E-2],"split_indices":[40,0,0],"split_type":[0,0,0],"sum_hessian":[4.0239294E2,1.7758295E2,2.2480998E2],"tree_param":{"num_deleted":"0","num_feature":"41","num_nodes":"3","size_leaf_vector":"1"}},{"base_weights":[2.0976817E-2,-5.851526E-2,1.5270085E0,2.0026097E-2,7.657265E-2],"categories":[],"categories_nodes":[],"categories_segments":[],"categories_sizes":[],"default_left":[0,0,0,0,0],"id":7,"left_children":[1,-1,3,-1,-1],"loss_changes":[7.2005615E2,0E0,2.7398682E-1,0E0,0E0],"parents":[2147483647,0,0,2,2],"right_children":[2,-1,4,-1,-1],"split_conditions":[3.7880176E2,-5.851526E-2,7.6141804E-2,2.0026097E-2,7.657265E-2],"split_indices":[7,0,0,0,0],"split_type":[0,0,0,0,0],"sum_hessian":[3.993487E2,2.2309882E2,1.7624986E2,1.0507307E0,1.7519914E2],"tree_param":{"num_deleted":"0","num_feature":"41","num_nodes":"5","size_leaf_vector":"1"}},{"base_weights":[6.429147E-3,7.4605905E-2,-5.7202894E-2],"categories":[],"categories_nodes":[],"categories_segments":[],"categories_sizes":[],"default_left":[0,0,0],"id":8,"left_children":[1,-1,-1],"loss_changes":[6.707845E2,0E0,0E0],"parents":[2147483647,0,0],"right_children":[2,-1,-1],"split_conditions":[2E0,7.4605905E-2,-5.7202894E-2],"split_indices":[40,0,0],"split_type":[0,0,0],"sum_hessian":[3.9044144E2,1.7026791E2,2.2017352E2],"tree_param":{"num_deleted":"0","num_feature":"41","num_nodes":"3","size_leaf_vector":"1"}},{"base_weights":[1.0619556E-2,7.280333E-2,-5.5199552E-2],"categories":[],"categories_nodes":[],"categories_segments":[],"categories_sizes":[],"default_left":[0,0,0],"id":9,"left_children":[1,-1,-1],"loss_changes":[6.1403906E2,0E0,0E0],"parents":[2147483647,0,0],"right_children":[2,-1,-1],"split_conditions":[2E0,7.280333E-2,-5.5199552E-2],"split_indices":[40,0,0],"split_type":[0,0,0],"sum_hessian":[3.7913007E2,1.6493416E2,2.141959E2],"tree_param":{"num_deleted":"0","num_feature":"41","num_nodes":"3","size_leaf_vector":"1"}},{"base_weights":[-2.2666913E-2,7.11657E-2,-5.4245498E-2],"categories":[],"categories_nodes":[],"categories_segments":[],"categories_sizes":[],"default_left":[0,0,0],"id":10,"left_children":[1,-1,-1],"loss_changes":[5.7597723E2,0E0,0E0],"parents":[2147483647,0,0],"right_children":[2,-1,-1],"split_conditions":[2E0,7.11657E-2,-5.4245498E-2],"split_indices":[40,0,0],"split_type":[0,0,0],"sum_hessian":[3.7298392E2,1.5781625E2,2.1516768E2],"tree_param":{"num_deleted":"0","num_feature":"41","num_nodes":"3","size_leaf_vector":"1"}},{"base_weights":[2.531263E-3,6.9666974E-2,-1.0324324E0,-9.469383E-1,-1.0991573E0,-7.941062E-1,-1.1983831E0,-1.183835E0,-8.4121543E-1,-4.7128152E-2,-5.1793414E-1,-4.4634234E-2,-7.06298E-2,-6.452077E-2,-1.0229899E0,-4.9082023E-1,-5.322004E-2,-3.296154E-3,-2.764363E-2,-4.2373043E-2,-6.7850545E-2,-3.4662213E-3,-2.8273104E-2],"categories":[],"categories_nodes":[],"categories_segments":[],"categories_sizes":[],"default_left":[0,0,0,0,0,0,0,0,0,0,0,0,0,0,0,0,0,0,0,0,0,0,0],"id":11,"left_children":[1,-1,3,5,7,9,11,13,15,-1,17,-1,-1,-1,19,21,-1,-1,-1,-1,-1,-1,-1],"loss_changes":[5.2493665E2,0E0,1.5194702E-1,2.8480148E0,1.4333038E0,2.1546898E0,1.0580978E0,7.319641E-2,1.8973198E0,0E0,3.545184E-1,0E0,0E0,0E0,1.0319862E0,3.9796805E-1,0E0,0E0,0E0,0E0,0E0,0E0,0E0],"parents":[2147483647,0,0,2,2,3,3,4,4,5,5,6,6,7,7,8,8,10,10,14,14,15,15],"right_children":[2,-1,4,6,8,10,12,14,16,-1,18,-1,-1,-1,20,22,-1,-1,-1,-1,-1,-1,-1],"split_conditions":[2E0,6.9666974E-2,4.5E0,2E0,2E0,3E0,3E0,6E0,6E0,-4.7128152E-2,4.0453205E0,-4.4634234E-2,-7.06298E-2,-6.452077E-2,1E0,1.1948512E1,-5.322004E-2,-3.296154E-3,-2.764363E-2,-4.2373043E-2,-6.7850545E-2,-3.4662213E-3,-2.8273104E-2],"split_indices":[40,0,40,39,39,40,40,40,40,0,14,0,0,0,39,8,0,0,0,0,0,0,0],"split_type":[0,0,0,0,0,0,0,0,0,0,0,0,0,0,0,0,0,0,0,0,0,0,0],"sum_hessian":[3.6268277E2,1.5459209E2,2.080907E2,9.787537E1,1.1021533E2,6.346097E1,3.4414394E1,8.0273476E1,2.9941854E1,3.970468E1,2.3756292E1,1.6308361E1,1.8106033E1,4.4057228E1,3.6216244E1,1.2895467E1,1.7046387E1,1.9116368E0,2.1844656E1,2.6059202E1,1.0157043E1,2.230243E0,1.0665224E1],"tree_param":{"num_deleted":"0","num_feature":"41","num_nodes":"23","size_leaf_vector":"1"}},{"base_weights":[-1.3342948E-2,-5.122922E-2,1.361796E0,1.7661309E-2,6.8314955E-2],"categories":[],"categories_nodes":[],"categories_segments":[],"categories_sizes":[],"default_left":[0,0,0,0,0],"id":12,"left_children":[1,-1,3,-1,-1],"loss_changes":[5.012568E2,0E0,2.1118164E-1,0E0,0E0],"parents":[2147483647,0,0,2,2],"right_children":[2,-1,4,-1,-1],"split_conditions":[7.722336E2,-5.122922E-2,6.627425E-3,1.7661309E-2,6.8314955E-2],"split_indices":[9,0,1,0,0],"split_type":[0,0,0,0,0],"sum_hessian":[3.5845813E2,2.0670648E2,1.5175165E2,1.0276405E0,1.50724E2],"tree_param":{"num_deleted":"0","num_feature":"41","num_nodes":"5","size_leaf_vector":"1"}},{"base_weights":[1.0317936E-2,6.709047E-2,-4.762022E-2],"categories":[],"categories_nodes":[],"categories_segments":[],"categories_sizes":[],"default_left":[0,0,0],"id":13,"left_children":[1,-1,-1],"loss_changes":[4.481659E2,0E0,0E0],"parents":[2147483647,0,0],"right_children":[2,-1,-1],"split_conditions":[2E0,6.709047E-2,-4.762022E-2],"split_indices":[40,0,0],"split_type":[0,0,0],"sum_hessian":[3.476256E2,1.4570912E2,2.019165E2],"tree_param":{"num_deleted":"0","num_feature":"41","num_nodes":"3","size_leaf_vector":"1"}},{"base_weights":[2.5860751E-2,6.594362E-2,-9.182364E-1,-8.349463E-1,-9.866353E-1,-6.622058E-1,-1.1215593E0,-5.5799395E-2,-6.2435555E-1,-4.314706E-2,-2.9404432E-1,-4.2225998E-2,-6.6728435E-2,-2.8224033E-1,-4.4540744E-2,6.9535747E-3,-1.9713977E-2,4.427066E-3,-2.0377427E-2],"categories":[],"categories_nodes":[],"categories_segments":[],"categories_sizes":[],"default_left":[0,0,0,0,0,0,0,0,0,0,0,0,0,0,0,0,0,0,0],"id":14,"left_children":[1,-1,3,5,7,9,11,-1,13,-1,15,-1,-1,17,-1,-1,-1,-1,-1],"loss_changes":[4.1703177E2,0E0,3.0117798E-1,3.98777E0,4.126404E0,4.3325157E0,9.0818405E-1,0E0,2.4241085E0,0E0,1.0713143E0,0E0,0E0,7.0115995E-1,0E0,0E0,0E0,0E0,0E0],"parents":[2147483647,0,0,2,2,3,3,4,4,5,5,6,6,8,8,10,10,13,13],"right_children":[2,-1,4,6,8,10,12,-1,14,-1,16,-1,-1,18,-1,-1,-1,-1,-1],"split_conditions":[2E0,6.594362E-2,4.5E0,2E0,2E0,3E0,3E0,-5.5799395E-2,6E0,-4.314706E-2,1.30628785E-2,-4.2225998E-2,-6.6728435E-2,-2.350742E0,-4.4540744E-2,6.9535747E-3,-1.9713977E-2,4.427066E-3,-2.0377427E-2],"split_indices":[40,0,40,39,39,40,40,0,40,0,3,0,0,33,0,0,0,0,0],"split_type":[0,0,0,0,0,0,0,0,0,0,0,0,0,0,0,0,0,0,0],"sum_hessian":[3.396332E2,1.4316333E2,1.9646988E2,9.454658E1,1.01923294E2,6.1057766E1,3.3488815E1,7.3573364E1,2.834993E1,3.86438E1,2.2413965E1,1.671458E1,1.6774233E1,1.3314394E1,1.5035536E1,4.1395493E0,1.8274416E1,3.4372191E0,9.877174E0],"tree_param":{"num_deleted":"0","num_feature":"41","num_nodes":"19","size_leaf_vector":"1"}},{"base_weights":[2.345613E-2,6.48894E-2,-8.826234E-1,-7.990529E-1,-9.481787E-1,-6.190412E-1,-1.1005561E0,-1.0761842E0,-5.954667E-1,-8.119763E-1,-2.2761676E-1,-4.2040005E-2,-6.5215506E-2,-9.798224E-1,-6.5880954E-2,-3.267159E-1,-4.1225653E-2,-1.6907552E-2,-4.194388E-2,2.1974642E-2,-1.4470299E-2,-5.541869E-2,-3.7747696E-2,1.0870075E-2,-2.1250525E-2],"categories":[],"categories_nodes":[],"categories_segments":[],"categories_sizes":[],"default_left":[0,0,0,0,0,0,0,0,0,0,0,0,0,0,0,0,0,0,0,0,0,0,0,0,0],"id":15,"left_children":[1,-1,3,5,7,9,11,13,15,17,19,-1,-1,21,-1,23,-1,-1,-1,-1,-1,-1,-1,-1,-1],"loss_changes":[3.839584E2,0E0,3.0717468E-1,4.3010635E0,4.034958E0,4.328718E0,6.516609E-1,4.4799042E-1,1.565959E0,2.216568E-1,9.9785805E-1,0E0,0E0,8.20343E-1,0E0,9.147146E-1,0E0,0E0,0E0,0E0,0E0,0E0,0E0,0E0,0E0],"parents":[2147483647,0,0,2,2,3,3,4,4,5,5,6,6,7,7,8,8,9,9,10,10,13,13,15,15],"right_children":[2,-1,4,6,8,10,12,14,16,18,20,-1,-1,22,-1,24,-1,-1,-1,-1,-1,-1,-1,-1,-1],"split_conditions":[2E0,6.48894E-2,4.5E0,2E0,2E0,3E0,3E0,1E0,6E0,2.4940362E0,2.5844622E0,-4.2040005E-2,-6.5215506E-2,6E0,-6.5880954E-2,-1.8108248E0,-4.1225653E-2,-1.6907552E-2,-4.194388E-2,2.1974642E-2,-1.4470299E-2,-5.541869E-2,-3.7747696E-2,1.0870075E-2,-2.1250525E-2],"split_indices":[40,0,40,39,39,40,40,39,40,30,22,0,0,40,0,23,0,0,0,0,0,0,0,0,0],"split_type":[0,0,0,0,0,0,0,0,0,0,0,0,0,0,0,0,0,0,0,0,0,0,0,0,0],"sum_hessian":[3.3054138E2,1.3717827E2,1.9336311E2,9.079973E1,1.02563385E2,5.876652E1,3.2033203E1,7.374781E1,2.8815577E1,3.8644188E1,2.0122334E1,1.6335024E1,1.569818E1,5.6325443E1,1.7422363E1,1.4375063E1,1.4440513E1,2.805186E0,3.5839005E1,1.1875987E0,1.8934734E1,3.3338005E1,2.298744E1,2.0141037E0,1.236096E1],"tree_param":{"num_deleted":"0","num_feature":"41","num_nodes":"25","size_leaf_vector":"1"}},{"base_weights":[-3.802885E-3,1.2691339E0,-4.421068E-2,4.829932E-3,6.389724E-2],"categories":[],"categories_nodes":[],"categories_segments":[],"categories_sizes":[],"default_left":[0,0,0,0,0],"id":16,"left_children":[1,3,-1,-1,-1],"loss_changes":[3.6018143E2,1.2340698E0,0E0,0E0,0E0],"parents":[2147483647,0,0,1,1],"right_children":[2,4,-1,-1,-1],"split_conditions":[6.6499535E1,7.6141804E-2,-4.421068E-2,4.829932E-3,6.389724E-2],"split_indices":[15,0,0,0,0],"split_type":[0,0,0,0,0],"sum_hessian":[3.1938632E2,1.3040274E2,1.889836E2,1.0617996E0,1.2934094E2],"tree_param":{"num_deleted":"0","num_feature":"41","num_nodes":"5","size_leaf_vector":"1"}},{"base_weights":[7.4669598E-3,-8.333155E-1,6.3003495E-2,-9.753786E-3,-4.178877E-2],"categories":[],"categories_nodes":[],"categories_segments":[],"categories_sizes":[],"default_left":[0,0,0,0,0],"id":17,"left_children":[1,3,-1,-1,-1],"loss_changes":[3.3063727E2,1.3191223E-1,0E0,0E0,0E0],"parents":[2147483647,0,0,1,1],"right_children":[2,4,-1,-1,-1],"split_conditions":[4.7622505E1,7.6141804E-2,6.3003495E-2,-9.753786E-3,-4.178877E-2],"split_indices":[13,0,0,0,0],"split_type":[0,0,0,0,0],"sum_hessian":[3.1194885E2,1.8685872E2,1.25090126E2,1.025745E0,1.8583296E2],"tree_param":{"num_deleted":"0","num_feature":"41","num_nodes":"5","size_leaf_vector":"1"}},{"base_weights":[-1.0743679E-2,6.2183928E-2,-8.405403E-1,-7.6751995E-1,-8.964763E-1,-6.055766E-1,-1.0538157E0,-1.0165861E0,-5.575756E-1,-3.7737016E-2,-3.518742E-1,-3.8471937E-2,-6.2579475E-2,-9.211835E-1,-6.309417E-2,-2.5942767E-1,-4.1469432E-2,-2.6910517E-3,-1.96568E-2,-5.244111E-2,-3.6177486E-2,3.9033561E-3,-1.6418654E-2],"categories":[],"categories_nodes":[],"categories_segments":[],"categories_sizes":[],"default_left":[0,0,0,0,0,0,0,0,0,0,0,0,0,0,0,0,0,0,0,0,0,0,0],"id":18,"left_children":[1,-1,3,5,7,9,11,13,15,-1,17,-1,-1,19,-1,21,-1,-1,-1,-1,-1,-1,-1],"loss_changes":[3.233303E2,0E0,7.551575E-2,3.4437294E0,3.4997864E0,1.9514198E0,7.499542E-1,5.353317E-1,2.0828753E0,0E0,2.68641E-1,0E0,0E0,6.5216446E-1,0E0,3.7416375E-1,0E0,0E0,0E0,0E0,0E0,0E0,0E0],"parents":[2147483647,0,0,2,2,3,3,4,4,5,5,6,6,7,7,8,8,10,10,13,13,15,15],"right_children":[2,-1,4,6,8,10,12,14,16,-1,18,-1,-1,20,-1,22,-1,-1,-1,-1,-1,-1,-1],"split_conditions":[2E0,6.2183928E-2,4.5E0,2E0,2E0,3E0,3E0,1E0,6E0,-3.7737016E-2,2.4689E0,-3.8471937E-2,-6.2579475E-2,6E0,-6.309417E-2,-5.3600025E0,-4.1469432E-2,-2.6910517E-3,-1.96568E-2,-5.244111E-2,-3.6177486E-2,3.9033561E-3,-1.6418654E-2],"split_indices":[40,0,40,39,39,40,40,39,40,0,26,0,0,40,0,17,0,0,0,0,0,0,0],"split_type":[0,0,0,0,0,0,0,0,0,0,0,0,0,0,0,0,0,0,0,0,0,0,0],"sum_hessian":[3.0861685E2,1.2267203E2,1.8594482E2,8.704081E1,9.8904015E1,5.7583736E1,2.9457073E1,7.15473E1,2.7356718E1,3.501931E1,2.2564428E1,1.4089059E1,1.5368015E1,5.493646E1,1.661084E1,1.3978419E1,1.33783E1,3.0241263E0,1.9540302E1,3.0762243E1,2.4174215E1,2.3487487E0,1.162967E1],"tree_param":{"num_deleted":"0","num_feature":"41","num_nodes":"23","size_leaf_vector":"1"}},{"base_weights":[-6.3239126E-3,6.1400224E-2,-4.0160146E-2],"categories":[],"categories_nodes":[],"categories_segments":[],"categories_sizes":[],"default_left":[0,0,0],"id":19,"left_children":[1,-1,-1],"loss_changes":[2.949178E2,0E0,0E0],"parents":[2147483647,0,0],"right_children":[2,-1,-1],"split_conditions":[2E0,6.1400224E-2,-4.0160146E-2],"split_indices":[40,0,0],"split_type":[0,0,0],"sum_hessian":[2.9782916E2,1.16631454E2,1.8119771E2],"tree_param":{"num_deleted":"0","num_feature":"41","num_nodes":"3","size_leaf_vector":"1"}},{"base_weights":[-3.4981955E-2,6.067415E-2,-8.0367875E-1,-7.214726E-1,-8.716818E-1,-5.64501E-1,-9.996586E-1,-9.91011E-1,-5.588067E-1,-7.071015E-1,-2.8817686E-1,-3.5815116E-2,-6.094246E-2,-9.0050745E-1,-6.12117E-2,-2.9848343E-1,-7.587641E-1,-3.599889E-2,-1.0383323E-2,-2.0563494E-2,-1.0490601E-2,-5.2614428E-2,-3.299649E-2,6.8721087E-3,-1.842839E-2,-3.9540004E-2,-1.4213003E-2],"categories":[],"categories_nodes":[],"categories_segments":[],"categories_sizes":[],"default_left":[0,0,0,0,0,0,0,0,0,0,0,0,0,0,0,0,0,0,0,0,0,0,0,0,0,0,0],"id":20,"left_children":[1,-1,3,5,7,9,11,13,15,17,19,-1,-1,21,-1,23,25,-1,-1,-1,-1,-1,-1,-1,-1,-1,-1],"loss_changes":[2.8465714E2,0E0,3.9720917E-1,3.3177986E0,3.0173721E0,2.1261826E0,1.0381355E0,3.3181E-1,1.2675486E0,9.687996E-2,1.2414682E-1,0E0,0E0,1.2311859E0,0E0,4.819603E-1,1.211071E-2,0E0,0E0,0E0,0E0,0E0,0E0,0E0,0E0,0E0,0E0],"parents":[2147483647,0,0,2,2,3,3,4,4,5,5,6,6,7,7,8,8,9,9,10,10,13,13,15,15,16,16],"right_children":[2,-1,4,6,8,10,12,14,16,18,20,-1,-1,22,-1,24,26,-1,-1,-1,-1,-1,-1,-1,-1,-1,-1],"split_conditions":[2E0,6.067415E-2,4.5E0,2E0,2E0,3E0,3E0,1E0,6E0,1.0118957E1,3.9887296E2,-3.5815116E-2,-6.094246E-2,6E0,-6.12117E-2,4.4245815E0,3.5306358E0,-3.599889E-2,-1.0383323E-2,-2.0563494E-2,-1.0490601E-2,-5.2614428E-2,-3.299649E-2,6.8721087E-3,-1.842839E-2,-3.9540004E-2,-1.4213003E-2],"split_indices":[40,0,40,39,39,40,40,39,40,25,9,0,0,40,0,25,34,0,0,0,0,0,0,0,0,0,0],"split_type":[0,0,0,0,0,0,0,0,0,0,0,0,0,0,0,0,0,0,0,0,0,0,0,0,0,0,0],"sum_hessian":[2.945971E2,1.1204409E2,1.8255301E2,8.7901695E1,9.465131E1,5.8129982E1,2.977171E1,6.694959E1,2.770172E1,3.7314445E1,2.0815538E1,1.4846719E1,1.492499E1,5.1734756E1,1.5214837E1,1.3117225E1,1.4584495E1,3.594611E1,1.3683345E0,6.44453E0,1.4371009E1,2.9652748E1,2.2082006E1,1.6836721E0,1.1433553E1,1.3037679E1,1.546816E0],"tree_param":{"num_deleted":"0","num_feature":"41","num_nodes":"27","size_leaf_vector":"1"}},{"base_weights":[1.449474E-2,6E-2,-7.2645587E-1,-6.3159776E-1,-4.0148776E-2,-3.241097E-2,-8.276978E-2,2.973999E-3,-9.199613E-3],"categories":[],"categories_nodes":[],"categories_segments":[],"categories_sizes":[],"default_left":[0,0,0,0,0,0,0,0,0],"id":21,"left_children":[1,-1,3,5,-1,-1,7,-1,-1],"loss_changes":[2.491233E2,0E0,7.5974274E-1,7.00016E-1,0E0,0E0,6.2419154E-2,0E0,0E0],"parents":[2147483647,0,0,2,2,3,3,6,6],"right_children":[2,-1,4,6,-1,-1,8,-1,-1],"split_conditions":[2E0,6E-2,4.5E0,1.8273395E-1,-4.0148776E-2,-3.241097E-2,3E0,2.973999E-3,-9.199613E-3],"split_indices":[40,0,40,2,0,0,40,0,0],"split_type":[0,0,0,0,0,0,0,0,0],"sum_hessian":[2.816176E2,1.08077065E2,1.7354056E2,8.161725E1,9.192331E1,7.904229E1,2.5749533E0,1.2419717E0,1.3329817E0],"tree_param":{"num_deleted":"0","num_feature":"41","num_nodes":"9","size_leaf_vector":"1"}},{"base_weights":[-4.8600244E-3,5.937026E-2,-7.504416E-1,-3.8822997E-2,-3.0742586E-2],"categories":[],"categories_nodes":[],"categories_segments":[],"categories_sizes":[],"default_left":[0,0,0,0,0],"id":22,"left_children":[1,-1,3,-1,-1],"loss_changes":[2.4370943E2,0E0,1.1764526E-1,0E0,0E0],"parents":[2147483647,0,0,2,2],"right_children":[2,-1,4,-1,-1],"split_conditions":[2E0,5.937026E-2,3.4788358E0,-3.8822997E-2,-3.0742586E-2],"split_indices":[40,0,34,0,0],"split_type":[0,0,0,0,0],"sum_hessian":[2.721577E2,1.0448398E2,1.6767372E2,1.3671329E2,3.0960434E1],"tree_param":{"num_deleted":"0","num_feature":"41","num_nodes":"5","size_leaf_vector":"1"}},{"base_weights":[-2.5550087E-3,5.878557E-2,-7.058054E-1,-6.2408817E-1,-7.7265847E-1,-4.4542217E-1,-9.5178354E-1,-9.110563E-1,-4.0197292E-1,-5.9317994E-1,-1.7727493E-1,-6.405391E-1,-5.9002277E-2,-8.095582E-1,-5.9159484E-2,-1.3133775E-1,-3.0828608E-2,-7.609453E-3,-3.0277694E-2,-3.0566172E-3,-1.9845506E-2,-1.4896437E-2,-3.4458164E-2,-4.829719E-2,-2.885122E-2,-1.4963134E-2,4.9620313E-3],"categories":[],"categories_nodes":[],"categories_segments":[],"categories_sizes":[],"default_left":[0,0,0,0,0,0,0,0,0,0,0,0,0,0,0,0,0,0,0,0,0,0,0,0,0,0,0],"id":23,"left_children":[1,-1,3,5,7,9,11,13,15,17,19,21,-1,23,-1,25,-1,-1,-1,-1,-1,-1,-1,-1,-1,-1,-1],"loss_changes":[2.2655373E2,0E0,4.5317078E-1,4.3912888E0,4.2495766E0,2.0781336E0,1.2433186E0,8.2987595E-1,1.4435344E0,9.9383354E-2,5.1150465E-1,2.9455662E-2,0E0,1.2720718E0,0E0,5.28399E-1,0E0,0E0,0E0,0E0,0E0,0E0,0E0,0E0,0E0,0E0,0E0],"parents":[2147483647,0,0,2,2,3,3,4,4,5,5,6,6,7,7,8,8,9,9,10,10,11,11,13,13,15,15],"right_children":[2,-1,4,6,8,10,12,14,16,18,20,22,-1,24,-1,26,-1,-1,-1,-1,-1,-1,-1,-1,-1,-1,-1],"split_conditions":[2E0,5.878557E-2,4.5E0,2E0,2E0,3E0,3E0,1E0,6E0,9.818116E0,3.1573277E0,3.6729372E0,-5.9002277E-2,6E0,-5.9159484E-2,2.4068126E-2,-3.0828608E-2,-7.609453E-3,-3.0277694E-2,-3.0566172E-3,-1.9845506E-2,-1.4896437E-2,-3.4458164E-2,-4.829719E-2,-2.885122E-2,-1.4963134E-2,4.9620313E-3],"split_indices":[40,0,40,39,39,40,40,39,40,8,32,6,0,40,0,1,0,0,0,0,0,0,0,0,0,0,0],"split_type":[0,0,0,0,0,0,0,0,0,0,0,0,0,0,0,0,0,0,0,0,0,0,0,0,0,0,0],"sum_hessian":[2.7141064E2,1.0119346E2,1.702172E2,8.124418E1,8.897301E1,5.410456E1,2.7139616E1,6.372362E1,2.5249388E1,3.4101433E1,2.0003128E1,1.3092976E1,1.404664E1,4.9307983E1,1.4415638E1,1.1879693E1,1.3369695E1,1.2937315E0,3.28077E1,1.3920392E1,6.0827365E0,2.5130386E0,1.0579937E1,2.7595339E1,2.1712645E1,6.701365E0,5.1783285E0],"tree_param":{"num_deleted":"0","num_feature":"41","num_nodes":"27","size_leaf_vector":"1"}},{"base_weights":[5.1312004E-3,5.8226515E-2,-6.743196E-1,-6.1364216E-1,-7.242868E-1,-4.6094143E-1,-8.978118E-1,-8.514741E-1,-3.796667E-1,-6.1769575E-1,-1.8030474E-1,-5.1938957E-1,-5.833319E-2,-7.382296E-1,-5.822168E-2,-1.09114215E-1,-6.1172056E-1,-1.7878188E-2,-3.352539E-2,-3.036782E-3,-2.0322947E-2,-2.7999936E-2,-1.1419984E-2,-4.547259E-2,-2.5327636E-2,-1.3094298E-2,1.61161E-2,-3.3326354E-2,-7.6084435E-3],"categories":[],"categories_nodes":[],"categories_segments":[],"categories_sizes":[],"default_left":[0,0,0,0,0,0,0,0,0,0,0,0,0,0,0,0,0,0,0,0,0,0,0,0,0,0,0,0,0],"id":24,"left_children":[1,-1,3,5,7,9,11,13,15,17,19,21,-1,23,-1,25,27,-1,-1,-1,-1,-1,-1,-1,-1,-1,-1,-1,-1],"loss_changes":[2.0687843E2,0E0,5.75943E-2,3.115078E0,3.4138298E0,2.3061152E0,2.1787224E0,1.3190193E0,1.4895718E0,2.3898411E-1,5.4606795E-1,2.7736902E-2,0E0,1.4382629E0,0E0,9.189921E-1,2.2919226E-1,0E0,0E0,0E0,0E0,0E0,0E0,0E0,0E0,0E0,0E0,0E0,0E0],"parents":[2147483647,0,0,2,2,3,3,4,4,5,5,6,6,7,7,8,8,9,9,10,10,11,11,13,13,15,15,16,16],"right_children":[2,-1,4,6,8,10,12,14,16,18,20,22,-1,24,-1,26,28,-1,-1,-1,-1,-1,-1,-1,-1,-1,-1,-1,-1],"split_conditions":[2E0,5.8226515E-2,4.5E0,2E0,2E0,3E0,3E0,1E0,6E0,1.4441911E0,1.7162184E1,1.7397017E1,-5.833319E-2,6E0,-5.822168E-2,2.847013E0,2.6574066E-2,-1.7878188E-2,-3.352539E-2,-3.036782E-3,-2.0322947E-2,-2.7999936E-2,-1.1419984E-2,-4.547259E-2,-2.5327636E-2,-1.3094298E-2,1.61161E-2,-3.3326354E-2,-7.6084435E-3],"split_indices":[40,0,40,39,39,40,40,39,40,35,13,13,0,40,0,35,1,0,0,0,0,0,0,0,0,0,0,0,0],"split_type":[0,0,0,0,0,0,0,0,0,0,0,0,0,0,0,0,0,0,0,0,0,0,0,0,0,0,0,0,0],"sum_hessian":[2.60621E2,9.6035065E1,1.6458594E2,8.032476E1,8.426118E1,5.3954147E1,2.637061E1,6.047222E1,2.3788958E1,3.3847187E1,2.0106962E1,1.217109E1,1.4199519E1,4.687085E1,1.3601369E1,1.1662184E1,1.2126773E1,7.023345E0,2.6823843E1,1.3982753E1,6.1242085E0,9.869316E0,2.3017743E0,2.526965E1,2.1601202E1,8.902719E0,2.759466E0,1.0432232E1,1.694541E0],"tree_param":{"num_deleted":"0","num_feature":"41","num_nodes":"29","size_leaf_vector":"1"}},{"base_weights":[-9.925726E-3,-6.7088354E-1,5.7700485E-2,-3.3941694E-2,-2.1344407E-2],"categories":[],"categories_nodes":[],"categories_segments":[],"categories_sizes":[],"default_left":[0,0,0,0,0],"id":25,"left_children":[1,3,-1,-1,-1],"loss_changes":[1.9935289E2,3.0807495E-2,0E0,0E0,0E0],"parents":[2147483647,0,0,1,1],"right_children":[2,4,-1,-1,-1],"split_conditions":[4.7622505E1,2.0739275E1,5.7700485E-2,-3.3941694E-2,-2.1344407E-2],"split_indices":[13,14,0,0,0],"split_type":[0,0,0,0,0],"sum_hessian":[2.5712494E2,1.6426707E2,9.2857864E1,1.5735762E2,6.9094524E0],"tree_param":{"num_deleted":"0","num_feature":"41","num_nodes":"5","size_leaf_vector":"1"}},{"base_weights":[1.8434428E-2,5.721988E-2,-6.219839E-1,-3.29928E-2,-5.314337E-1,-4.402082E-1,-5.864311E-1,-1.5621097E-1,-5.750513E-1,-4.132103E-1,-3.328449E-2,-1.900748E-2,4.7096363E-3,-3.798503E-2,-1.376037E-2,-5.710604E-3,-2.1881502E-2],"categories":[],"categories_nodes":[],"categories_segments":[],"categories_sizes":[],"default_left":[0,0,0,0,0,0,0,0,0,0,0,0,0,0,0,0,0],"id":26,"left_children":[1,-1,3,-1,5,7,9,11,13,15,-1,-1,-1,-1,-1,-1,-1],"loss_changes":[1.7774387E2,0E0,1.8823242E-1,0E0,1.3542175E-4,8.05254E-1,1.24547005E-1,5.347557E-1,6.477394E-1,3.598404E-2,0E0,0E0,0E0,0E0,0E0,0E0,0E0],"parents":[2147483647,0,0,2,2,4,4,5,5,6,6,7,7,8,8,9,9],"right_children":[2,-1,4,-1,6,8,10,12,14,16,-1,-1,-1,-1,-1,-1,-1],"split_conditions":[2E0,5.721988E-2,-1.5879687E1,-3.29928E-2,1E0,4.5E0,3E0,3E0,6E0,1.4998418E1,-3.328449E-2,-1.900748E-2,4.7096363E-3,-3.798503E-2,-1.376037E-2,-5.710604E-3,-2.1881502E-2],"split_indices":[40,0,21,0,39,40,40,40,40,8,0,0,0,0,0,0,0],"split_type":[0,0,0,0,0,0,0,0,0,0,0,0,0,0,0,0,0],"sum_hessian":[2.4450708E2,8.836304E1,1.5614404E2,1.05663666E2,5.0480377E1,2.2373339E1,2.8107037E1,7.8978653E0,1.4475472E1,1.0773928E1,1.7333109E1,3.895728E0,4.0021367E0,8.009454E0,6.466019E0,1.2421333E0,9.531795E0],"tree_param":{"num_deleted":"0","num_feature":"41","num_nodes":"17","size_leaf_vector":"1"}},{"base_weights":[2.1655211E-2,5.6774843E-2,-5.959393E-1,-5.267898E-1,-3.2726534E-2,-1.1052732E-2,-2.6843328E-2],"categories":[],"categories_nodes":[],"categories_segments":[],"categories_sizes":[],"default_left":[0,0,0,0,0,0,0],"id":27,"left_children":[1,-1,3,5,-1,-1,-1],"loss_changes":[1.6834628E2,0E0,2.931404E-1,1.19607925E-1,0E0,0E0,0E0],"parents":[2147483647,0,0,2,2,3,3],"right_children":[2,-1,4,6,-1,-1,-1],"split_conditions":[2E0,5.6774843E-2,4.5E0,-1.1144975E1,-3.2726534E-2,-1.1052732E-2,-2.6843328E-2],"split_indices":[40,0,40,13,0,0,0],"split_type":[0,0,0,0,0,0,0],"sum_hessian":[2.4274034E2,8.6285126E1,1.564552E2,7.634442E1,8.011079E1,3.1678307E0,7.317659E1],"tree_param":{"num_deleted":"0","num_feature":"41","num_nodes":"7","size_leaf_vector":"1"}},{"base_weights":[-2.2032274E-2,5.6338664E-2,-6.5204066E-1,-3.3919383E-2,-2.7436728E-2],"categories":[],"categories_nodes":[],"categories_segments":[],"categories_sizes":[],"default_left":[0,0,0,0,0],"id":28,"left_children":[1,-1,3,-1,-1],"loss_changes":[1.7072209E2,0E0,4.232025E-2,0E0,0E0],"parents":[2147483647,0,0,2,2],"right_children":[2,-1,4,-1,-1],"split_conditions":[2E0,5.6338664E-2,7.171191E0,-3.3919383E-2,-2.7436728E-2],"split_indices":[40,0,23,0,0],"split_type":[0,0,0,0,0],"sum_hessian":[2.33868E2,8.255053E1,1.5131746E2,1.1613251E2,3.5184956E1],"tree_param":{"num_deleted":"0","num_feature":"41","num_nodes":"5","size_leaf_vector":"1"}},{"base_weights":[-3.217341E-3,5.5924274E-2,-5.984665E-1,-2.4104951E-2,-6.3892144E-1,-2.766608E-2,-6.977976E-1,-3.648383E-2,-2.2216642E-2],"categories":[],"categories_nodes":[],"categories_segments":[],"categories_sizes":[],"default_left":[0,0,0,0,0,0,0,0,0],"id":29,"left_children":[1,-1,3,-1,5,-1,7,-1,-1],"loss_changes":[1.5368185E2,0E0,3.9985275E-1,0E0,1.6073227E-1,0E0,1.6428566E-1,0E0,0E0],"parents":[2147483647,0,0,2,2,4,4,6,6],"right_children":[2,-1,4,-1,6,-1,8,-1,-1],"split_conditions":[6.6499535E1,5.5924274E-2,2.4710772E0,-2.4104951E-2,1E0,-2.766608E-2,2.369321E-2,-3.648383E-2,-2.2216642E-2],"split_indices":[15,0,26,0,39,0,12,0,0],"split_type":[0,0,0,0,0,0,0,0,0],"sum_hessian":[2.2816603E2,7.879801E1,1.4936801E2,4.1864075E1,1.07503944E2,4.8046864E1,5.9457077E1,5.1145542E1,8.311536E0],"tree_param":{"num_deleted":"0","num_feature":"41","num_nodes":"9","size_leaf_vector":"1"}},{"base_weights":[2.2366999E-2,-5.48734E-1,5.5543568E-2,-1.708819E-2,-2.7796572E-2],"categories":[],"categories_nodes":[],"categories_segments":[],"categories_sizes":[],"default_left":[0,0,0,0,0],"id":30,"left_children":[1,3,-1,-1,-1],"loss_changes":[1.4001785E2,3.0109406E-2,0E0,0E0,0E0],"parents":[2147483647,0,0,1,1],"right_children":[2,4,-1,-1,-1],"split_conditions":[3.7880176E2,2.4510052E0,5.5543568E-2,-1.708819E-2,-2.7796572E-2],"split_indices":[7,38,0,0,0],"split_type":[0,0,0,0,0],"sum_hessian":[2.2325676E2,1.467552E2,7.650156E1,6.5613284E0,1.4019388E2],"tree_param":{"num_deleted":"0","num_feature":"41","num_nodes":"5","size_leaf_vector":"1"}},{"base_weights":[-6.4268016E-4,5.518306E-2,-5.5663526E-1,-4.819449E-1,-6.1928684E-1,-2.679463E-1,-8.6853224E-1,-7.7945054E-1,-2.1007174E-1,-3.9831898E-1,-5.2575342E-2,-2.9628187E-2,-5.4988366E-2,-6.624805E-1,-5.5153694E-2,1.5693915E-1,-5.4574156E-1,-3.157982E-2,-1.0087326E-2,-7.982151E-3,8.4865745E-3,-3.9614197E-2,-2.4138529E-2,-8.22323E-4,2.7610341E-2,-1.0028579E-2,-2.954164E-2],"categories":[],"categories_nodes":[],"categories_segments":[],"categories_sizes":[],"default_left":[0,0,0,0,0,0,0,0,0,0,0,0,0,0,0,0,0,0,0,0,0,0,0,0,0,0,0],"id":31,"left_children":[1,-1,3,5,7,9,11,13,15,17,19,-1,-1,21,-1,23,25,-1,-1,-1,-1,-1,-1,-1,-1,-1,-1],"loss_changes":[1.359631E2,0E0,3.9076233E-1,5.6987343E0,4.8560524E0,1.3154967E0,9.500885E-1,1.3389664E0,2.9084363E0,1.2251801E0,4.8170534E-1,0E0,0E0,6.1273956E-1,0E0,8.124548E-1,7.123804E-2,0E0,0E0,0E0,0E0,0E0,0E0,0E0,0E0,0E0,0E0],"parents":[2147483647,0,0,2,2,3,3,4,4,5,5,6,6,7,7,8,8,9,9,10,10,13,13,15,15,16,16],"right_children":[2,-1,4,6,8,10,12,14,16,18,20,-1,-1,22,-1,24,26,-1,-1,-1,-1,-1,-1,-1,-1,-1,-1],"split_conditions":[2E0,5.518306E-2,4.5E0,2E0,2E0,3E0,3E0,1E0,6E0,1E0,2.3427403E-2,-2.9628187E-2,-5.4988366E-2,6E0,-5.5153694E-2,3.1779022E0,1.332983E-2,-3.157982E-2,-1.0087326E-2,-7.982151E-3,8.4865745E-3,-3.9614197E-2,-2.4138529E-2,-8.22323E-4,2.7610341E-2,-1.0028579E-2,-2.954164E-2],"split_indices":[40,0,40,39,39,40,40,39,40,39,12,0,0,40,0,30,12,0,0,0,0,0,0,0,0,0,0],"split_type":[0,0,0,0,0,0,0,0,0,0,0,0,0,0,0,0,0,0,0,0,0,0,0,0,0,0,0],"sum_hessian":[2.1944322E2,7.315629E1,1.4628693E2,7.0697296E1,7.558963E1,4.659652E1,2.4100777E1,5.367636E1,2.1913269E1,2.8496807E1,1.809971E1,1.261179E1,1.1488988E1,4.166432E1,1.2012039E1,1.07223015E1,1.11909685E1,1.2019695E1,1.6477112E1,1.24064045E1,5.693307E0,2.2212015E1,1.9452305E1,8.119184E0,2.6031175E0,1.9224999E0,9.268469E0],"tree_param":{"num_deleted":"0","num_feature":"41","num_nodes":"27","size_leaf_vector":"1"}},{"base_weights":[-2.0518826E-2,5.482586E-2,-5.653794E-1,-4.5824954E-1,-5.98607E-1,-2.9204488E-1,-5.12295E-1,-4.9963877E-1,-6.813468E-1,-1.17322646E-1,-2.0001087E-2,-3.30702E-2,-3.9476892E-1,8.985085E-4,-6.396259E-1,-8.1147605E-1,-5.820997E-1,-7.1585453E-3,-1.2239772E-3,-4.801165E-3,-2.0955417E-2,7.428288E-3,-1.4830956E-2,-4.1595638E-2,-1.8997198E-2,-1.6051121E-2,-5.4725625E-2,-5.441338E-2,-1.4630201E-2],"categories":[],"categories_nodes":[],"categories_segments":[],"categories_sizes":[],"default_left":[0,0,0,0,0,0,0,0,0,0,0,0,0,0,0,0,0,0,0,0,0,0,0,0,0,0,0,0,0],"id":32,"left_children":[1,-1,3,5,7,9,11,13,15,17,-1,-1,19,21,23,25,27,-1,-1,-1,-1,-1,-1,-1,-1,-1,-1,-1,-1],"loss_changes":[1.3006836E2,0E0,2.3692322E-1,1.9409943E-1,5.3045654E-1,1.7408949E-1,2.2167063E-1,3.6565533E0,2.4023628E-1,1.062949E-2,0E0,0E0,8.981466E-2,5.889289E-1,1.7199612E0,2.6104221E0,4.7868156E0,0E0,0E0,0E0,0E0,0E0,0E0,0E0,0E0,0E0,0E0,0E0,0E0],"parents":[2147483647,0,0,2,2,3,3,4,4,5,5,6,6,7,7,8,8,9,9,12,12,13,13,14,14,15,15,16,16],"right_children":[2,-1,4,6,8,10,12,14,16,18,-1,-1,20,22,24,26,28,-1,-1,-1,-1,-1,-1,-1,-1,-1,-1,-1,-1],"split_conditions":[2E0,5.482586E-2,3E0,-4.462599E0,1E0,2.4068126E-2,3.0072699E0,4.5E0,4.5E0,2.255597E-1,-2.0001087E-2,-3.30702E-2,-2.1666312E-1,3.080468E0,6E0,2E0,2E0,-7.1585453E-3,-1.2239772E-3,-4.801165E-3,-2.0955417E-2,7.428288E-3,-1.4830956E-2,-4.1595638E-2,-1.8997198E-2,-1.6051121E-2,-5.4725625E-2,-5.441338E-2,-1.4630201E-2],"split_indices":[40,0,40,17,39,1,36,40,40,0,0,0,4,36,40,39,39,0,0,0,0,0,0,0,0,0,0,0,0],"split_type":[0,0,0,0,0,0,0,0,0,0,0,0,0,0,0,0,0,0,0,0,0,0,0,0,0,0,0,0,0],"sum_hessian":[2.1168858E2,6.9071144E1,1.4261745E2,3.7264263E1,1.0535317E2,1.071534E1,2.6548923E1,5.1177013E1,5.4176163E1,4.8896804E0,5.8256598E0,9.662321E0,1.6886602E1,1.1401928E1,3.9775085E1,2.0336002E1,3.384016E1,3.4007971E0,1.4888829E0,1.6446841E0,1.5241919E1,7.9545074E0,3.4474208E0,2.1586979E1,1.8188105E1,8.222327E0,1.2113674E1,1.1308558E1,2.2531603E1],"tree_param":{"num_deleted":"0","num_feature":"41","num_nodes":"29","size_leaf_vector":"1"}},{"base_weights":[1.4784852E-2,-4.9735403E-1,5.4490328E-2,-2.549371E-2,-9.283769E-3],"categories":[],"categories_nodes":[],"categories_segments":[],"categories_sizes":[],"default_left":[0,0,0,0,0],"id":33,"left_children":[1,3,-1,-1,-1],"loss_changes":[1.1496851E2,4.5734024E-1,0E0,0E0,0E0],"parents":[2147483647,0,0,1,1],"right_children":[2,4,-1,-1,-1],"split_conditions":[4.7622505E1,3.838449E1,5.4490328E-2,-2.549371E-2,-9.283769E-3],"split_indices":[13,8,0,0,0],"split_type":[0,0,0,0,0],"sum_hessian":[2.0683638E2,1.4045918E2,6.6377205E1,1.344235E2,6.0356836E0],"tree_param":{"num_deleted":"0","num_feature":"41","num_nodes":"5","size_leaf_vector":"1"}},{"base_weights":[-3.694428E-2,5.4175626E-2,-5.471331E-1,-5.936983E-1,-2.2978324E-2,-4.8988283E-1,-6.621545E-1,-3.1691006E-1,-5.763169E-1,-3.449777E-2,-2.209909E-2,-2.9992929E-2,-1.0874978E-3,-3.7711572E-2,-1.5568688E-2],"categories":[],"categories_nodes":[],"categories_segments":[],"categories_sizes":[],"default_left":[0,0,0,0,0,0,0,0,0,0,0,0,0,0,0],"id":34,"left_children":[1,-1,3,5,-1,7,9,11,13,-1,-1,-1,-1,-1,-1],"loss_changes":[1.16536575E2,0E0,2.9813385E-1,3.0095863E-1,0E0,3.97583E-1,2.2182465E-3,1.2524413E0,9.273796E-1,0E0,0E0,0E0,0E0,0E0,0E0],"parents":[2147483647,0,0,2,2,3,3,5,5,6,6,7,7,8,8],"right_children":[2,-1,4,6,-1,8,10,12,14,-1,-1,-1,-1,-1,-1],"split_conditions":[2E0,5.4175626E-2,2.9191666E0,1E0,-2.2978324E-2,4.5E0,1.8968637E1,3E0,6E0,-3.449777E-2,-2.209909E-2,-2.9992929E-2,-1.0874978E-3,-3.7711572E-2,-1.5568688E-2],"split_indices":[40,0,24,39,0,40,13,40,40,0,0,0,0,0,0],"split_type":[0,0,0,0,0,0,0,0,0,0,0,0,0,0,0],"sum_hessian":[2.018249E2,6.279444E1,1.3903046E2,8.6991264E1,5.2039196E1,3.780906E1,4.9182205E1,1.4152804E1,2.3656252E1,4.1773785E1,7.4084225E0,6.698818E0,7.4539866E0,1.3047702E1,1.0608551E1],"tree_param":{"num_deleted":"0","num_feature":"41","num_nodes":"15","size_leaf_vector":"1"}},{"base_weights":[-1.4929904E-3,5.3885378E-2,-4.7573417E-1,-4.056713E-1,-5.3800774E-1,-1.8466236E-1,-8.367117E-1,-7.186081E-1,-9.239689E-2,-3.790035E-1,1.131365E-1,-5.396751E-1,-5.3487834E-2,-5.9955376E-1,-5.3260315E-2,1.5887325E-1,-3.5873598E-1,-8.196048E-3,-2.4041308E-2,1.7513378E-2,2.3888368E-3,-2.9977411E-2,-5.143895E-3,-3.7436772E-2,-1.942627E-2,8.295217E-4,1.5703375E-2,-3.796154E-3,-2.5664924E-2],"categories":[],"categories_nodes":[],"categories_segments":[],"categories_sizes":[],"default_left":[0,0,0,0,0,0,0,0,0,0,0,0,0,0,0,0,0,0,0,0,0,0,0,0,0,0,0,0,0],"id":35,"left_children":[1,-1,3,5,7,9,11,13,15,17,19,21,-1,23,-1,25,27,-1,-1,-1,-1,-1,-1,-1,-1,-1,-1,-1,-1],"loss_changes":[1.031634E2,0E0,3.9270973E-1,6.5101376E0,5.6532345E0,2.7936893E0,1.044529E0,1.4421577E0,1.5055172E0,5.560956E-1,2.861039E-1,2.6048017E-1,0E0,9.627409E-1,0E0,2.560229E-1,4.3374074E-1,0E0,0E0,0E0,0E0,0E0,0E0,0E0,0E0,0E0,0E0,0E0,0E0],"parents":[2147483647,0,0,2,2,3,3,4,4,5,5,6,6,7,7,8,8,9,9,10,10,11,11,13,13,15,15,16,16],"right_children":[2,-1,4,6,8,10,12,14,16,18,20,22,-1,24,-1,26,28,-1,-1,-1,-1,-1,-1,-1,-1,-1,-1,-1,-1],"split_conditions":[2E0,5.3885378E-2,4.5E0,2E0,2E0,3E0,3E0,1E0,6E0,2.3516402E0,-5.2399783E0,8.6239105E1,-5.3487834E-2,6E0,-5.3260315E-2,2.6197374E0,2.886596E0,-8.196048E-3,-2.4041308E-2,1.7513378E-2,2.3888368E-3,-2.9977411E-2,-5.143895E-3,-3.7436772E-2,-1.942627E-2,8.295217E-4,1.5703375E-2,-3.796154E-3,-2.5664924E-2],"split_indices":[40,0,40,39,39,40,40,39,40,35,13,15,0,40,0,35,38,0,0,0,0,0,0,0,0,0,0,0,0],"split_type":[0,0,0,0,0,0,0,0,0,0,0,0,0,0,0,0,0,0,0,0,0,0,0,0,0,0,0,0,0],"sum_hessian":[1.9956747E2,6.0536327E1,1.3903114E2,6.8959915E1,7.0071236E1,4.6530544E1,2.2429367E1,4.942663E1,2.0644611E1,2.7991096E1,1.8539448E1,1.131858E1,1.1110787E1,3.8821503E1,1.0605124E1,1.0830434E1,9.814177E0,9.832187E0,1.815891E1,3.0639815E0,1.5475467E1,9.626453E0,1.6921268E0,2.1250742E1,1.757076E1,6.2277265E0,4.6027074E0,3.9951699E0,5.819007E0],"tree_param":{"num_deleted":"0","num_feature":"41","num_nodes":"29","size_leaf_vector":"1"}},{"base_weights":[-5.331022E-3,-4.7725916E-1,5.3179294E-2,-5.2700055E-1,-3.8081464E-1,-1.6580617E-2,-2.6902115E-2,-1.1771492E-2,-1.9727245E-2],"categories":[],"categories_nodes":[],"categories_segments":[],"categories_sizes":[],"default_left":[0,0,0,0,0,0,0,0,0],"id":36,"left_children":[1,3,-1,5,7,-1,-1,-1,-1],"loss_changes":[9.724547E1,4.408226E-1,0E0,6.2942505E-3,5.136013E-3,0E0,0E0,0E0,0E0],"parents":[2147483647,0,0,1,1,3,3,4,4],"right_children":[2,4,-1,6,8,-1,-1,-1,-1],"split_conditions":[4.5525643E-1,3.0629015E0,5.3179294E-2,3.6684856E0,3.5112941E0,-1.6580617E-2,-2.6902115E-2,-1.1771492E-2,-1.9727245E-2],"split_indices":[11,36,0,6,6,0,0,0,0],"split_type":[0,0,0,0,0,0,0,0,0],"sum_hessian":[1.9076823E2,1.3272395E2,5.804428E1,8.4617874E1,4.810608E1,6.186038E0,7.843183E1,5.7170467E0,4.2389034E1],"tree_param":{"num_deleted":"0","num_feature":"41","num_nodes":"9","size_leaf_vector":"1"}},{"base_weights":[1.6966522E-2,5.3321846E-2,-4.2632684E-1,-3.1417733E-1,-4.629939E-1,-2.1706708E-1,-3.8405728E-1,-4.0812483E-1,-5.084227E-1,2.05619E-2,-6.361029E-1,-5.8594376E-1,1.0015009E-1,-2.2574592E-1,-7.5863427E-1,-6.474705E-1,-1.9531107E-1,-7.404572E-3,1.36106685E-2,-9.93002E-3,-4.2804863E-2,-2.300098E-2,-4.13181E-2,1.3303685E-2,-5.7852003E-3,-1.999263E-2,3.0943982E-3,-2.1375146E-2,-5.0922394E-2,-2.571754E-2,-5.0516095E-2,8.819961E-3,-2.6401812E-2],"categories":[],"categories_nodes":[],"categories_segments":[],"categories_sizes":[],"default_left":[0,0,0,0,0,0,0,0,0,0,0,0,0,0,0,0,0,0,0,0,0,0,0,0,0,0,0,0,0,0,0,0,0],"id":37,"left_children":[1,-1,3,5,7,9,11,13,15,17,19,21,23,25,27,29,31,-1,-1,-1,-1,-1,-1,-1,-1,-1,-1,-1,-1,-1,-1,-1,-1],"loss_changes":[8.779455E1,0E0,4.002304E-1,1.59626E-1,3.6514282E-2,1.7341508E0,1.9671874E0,2.987235E0,2.027979E0,5.495378E-1,4.3499207E-1,4.1413307E-2,2.6712638E-1,1.723554E0,9.8297596E-1,1.1146727E0,2.1523056E0,0E0,0E0,0E0,0E0,0E0,0E0,0E0,0E0,0E0,0E0,0E0,0E0,0E0,0E0,0E0,0E0],"parents":[2147483647,0,0,2,2,3,3,4,4,5,5,6,6,7,7,8,8,9,9,10,10,11,11,12,12,13,13,14,14,15,15,16,16],"right_children":[2,-1,4,6,8,10,12,14,16,18,20,22,24,26,28,30,32,-1,-1,-1,-1,-1,-1,-1,-1,-1,-1,-1,-1,-1,-1,-1,-1],"split_conditions":[2E0,5.3321846E-2,2.9007118E0,4.5E0,4.5E0,2E0,2E0,2E0,2E0,3E0,3E0,1E0,6E0,3E0,3E0,1E0,6E0,-7.404572E-3,1.36106685E-2,-9.93002E-3,-4.2804863E-2,-2.300098E-2,-4.13181E-2,1.3303685E-2,-5.7852003E-3,-1.999263E-2,3.0943982E-3,-2.1375146E-2,-5.0922394E-2,-2.571754E-2,-5.0516095E-2,8.819961E-3,-2.6401812E-2],"split_indices":[40,0,18,40,40,39,39,39,39,40,40,39,40,40,40,39,40,0,0,0,0,0,0,0,0,0,0,0,0,0,0,0,0],"split_type":[0,0,0,0,0,0,0,0,0,0,0,0,0,0,0,0,0,0,0,0,0,0,0,0,0,0,0,0,0,0,0,0,0],"sum_hessian":[1.8673761E2,5.5036438E1,1.3170117E2,3.4807526E1,9.689364E1,1.628416E1,1.8523363E1,4.8408962E1,4.8484676E1,1.0998184E1,5.285977E0,1.292449E1,5.598874E0,3.292257E1,1.5486395E1,3.2835228E1,1.5649451E1,6.8313975E0,4.1667867E0,2.4053037E0,2.880673E0,1.0393884E1,2.5306063E0,3.0340178E0,2.5648563E0,2.0265553E1,1.2657017E1,7.971796E0,7.5145984E0,2.579084E1,7.044387E0,7.613604E0,8.035848E0],"tree_param":{"num_deleted":"0","num_feature":"41","num_nodes":"33","size_leaf_vector":"1"}},{"base_weights":[5.928741E-4,5.3069185E-2,-4.398432E-1,-3.588287E-1,-4.9911276E-1,-1.3309646E-1,-4.9291024E-1,-4.3361494E-1,-6.891136E-1,-4.1127264E-1,1.3403836E-1,-3.7524637E-2,-1.7166562E-1,-5.1878744E-1,-1.5785325E-1,-4.871223E-2,-4.5878977E-1,-1.1435676E-2,-2.5304465E-2,1.9170022E-2,2.8184816E-4,-2.3540799E-2,-3.8583279E-3,-1.3161751E-2,-3.9442208E-2,-4.535875E-2,9.09542E-3,-2.654773E-2,-4.901461E-3],"categories":[],"categories_nodes":[],"categories_segments":[],"categories_sizes":[],"default_left":[0,0,0,0,0,0,0,0,0,0,0,0,0,0,0,0,0,0,0,0,0,0,0,0,0,0,0,0,0],"id":38,"left_children":[1,-1,3,5,7,9,11,13,15,17,19,-1,21,23,25,-1,27,-1,-1,-1,-1,-1,-1,-1,-1,-1,-1,-1,-1],"loss_changes":[8.607608E1,0E0,4.4600868E-1,1.7068043E0,6.049652E-1,1.7785218E0,2.8805275E0,1.2499189E0,6.642132E-1,8.516204E-2,4.007873E-1,0E0,4.578386E-1,2.7520227E0,3.937578E0,0E0,2.408278E-1,0E0,0E0,0E0,0E0,0E0,0E0,0E0,0E0,0E0,0E0,0E0,0E0],"parents":[2147483647,0,0,2,2,3,3,4,4,5,5,6,6,7,7,8,8,9,9,10,10,12,12,13,13,14,14,16,16],"right_children":[2,-1,4,6,8,10,12,14,16,18,20,-1,22,24,26,-1,28,-1,-1,-1,-1,-1,-1,-1,-1,-1,-1,-1,-1],"split_conditions":[2E0,5.3069185E-2,1E0,4.5E0,6E0,3E0,6E0,4.5E0,2E0,2.6852012E0,2.5879817E0,-3.7524637E-2,1.1124675E-2,2E0,2E0,-4.871223E-2,8.8500977E-4,-1.1435676E-2,-2.5304465E-2,1.9170022E-2,2.8184816E-4,-2.3540799E-2,-3.8583279E-3,-1.3161751E-2,-3.9442208E-2,-4.535875E-2,9.09542E-3,-2.654773E-2,-4.901461E-3],"split_indices":[40,0,39,40,40,40,40,40,39,26,20,0,1,39,39,0,4,0,0,0,0,0,0,0,0,0,0,0,0],"split_type":[0,0,0,0,0,0,0,0,0,0,0,0,0,0,0,0,0,0,0,0,0,0,0,0,0,0,0,0,0],"sum_hessian":[1.822348E2,5.305116E1,1.2918364E2,5.7560036E1,7.1623604E1,2.2191803E1,3.5368233E1,5.5703465E1,1.5920138E1,1.0606911E1,1.1584891E1,1.8887516E1,1.6480717E1,4.1885353E1,1.3818111E1,5.670461E0,1.0249678E1,4.792206E0,5.814705E0,3.2626696E0,8.322222E0,3.0003743E0,1.3480342E1,2.253521E1,1.9350143E1,3.789839E0,1.0028273E1,8.148022E0,2.1016552E0],"tree_param":{"num_deleted":"0","num_feature":"41","num_nodes":"29","size_leaf_vector":"1"}},{"base_weights":[-2.1567931E-2,5.280518E-2,-4.69156E-1,-3.2300133E-1,-5.2083856E-1,-4.2248255E-1,-4.4289425E-2,-5.6473607E-1,-4.099578E-1,-5.4037845E-1,-2.5707042E-1,-1.2731853E-1,7.541116E-3,-1.5462278E-1,-7.278135E-1,-5.0858654E-2,-1.202961E-1,-7.5967023E-3,-2.8604312E-2,-2.2402918E-2,-6.6173817E-3,-1.0925343E-2,-2.8299172E-3,-1.6506245E-2,4.977913E-3,-3.1177718E-2,-5.1169492E-2,8.3015105E-3,-1.9659128E-2],"categories":[],"categories_nodes":[],"categories_segments":[],"categories_sizes":[],"default_left":[0,0,0,0,0,0,0,0,0,0,0,0,0,0,0,0,0,0,0,0,0,0,0,0,0,0,0,0,0],"id":39,"left_children":[1,-1,3,5,7,9,11,13,15,17,19,21,-1,23,25,-1,27,-1,-1,-1,-1,-1,-1,-1,-1,-1,-1,-1,-1],"loss_changes":[8.4049286E1,0E0,7.6148605E-1,9.457946E-1,2.0311928E-1,3.5873938E-1,1.8553413E-1,3.9886436E0,4.9738364E0,8.541584E-2,2.3909658E-1,3.7577286E-2,0E0,8.6778176E-1,7.056198E-1,0E0,1.6866243E0,0E0,0E0,0E0,0E0,0E0,0E0,0E0,0E0,0E0,0E0,0E0,0E0],"parents":[2147483647,0,0,2,2,3,3,4,4,5,5,6,6,7,7,8,8,9,9,10,10,11,11,13,13,14,14,16,16],"right_children":[2,-1,4,6,8,10,12,14,16,18,20,22,-1,24,26,-1,28,-1,-1,-1,-1,-1,-1,-1,-1,-1,-1,-1,-1],"split_conditions":[2E0,5.280518E-2,3E0,6.469491E0,2E0,-1.9683243E0,2.3632998E-2,4.5E0,4.5E0,2.6745895E2,1E0,1E0,7.541116E-3,3.0847538E0,1E0,-5.0858654E-2,6E0,-7.5967023E-3,-2.8604312E-2,-2.2402918E-2,-6.6173817E-3,-1.0925343E-2,-2.8299172E-3,-1.6506245E-2,4.977913E-3,-3.1177718E-2,-5.1169492E-2,8.3015105E-3,-1.9659128E-2],"split_indices":[40,0,40,14,39,33,12,40,40,7,39,39,0,34,39,0,40,0,0,0,0,0,0,0,0,0,0,0,0],"split_type":[0,0,0,0,0,0,0,0,0,0,0,0,0,0,0,0,0,0,0,0,0,0,0,0,0,0,0,0,0],"sum_hessian":[1.7222133E2,5.013946E1,1.2208186E2,3.3786304E1,8.829556E1,2.4518887E1,9.267416E0,6.0321285E1,2.7974274E1,1.299206E1,1.1526827E1,6.7446938E0,2.5227222E0,1.7716162E1,4.260512E1,8.223609E0,1.9750666E1,1.4175593E0,1.1574501E1,3.529568E0,7.9972587E0,2.0332432E0,4.7114506E0,1.0303332E1,7.41283E0,3.379439E1,8.810731E0,9.829078E0,9.921589E0],"tree_param":{"num_deleted":"0","num_feature":"41","num_nodes":"29","size_leaf_vector":"1"}},{"base_weights":[1.0438682E-2,-3.9902523E-1,5.2555215E-2,-3.5949132E-1,-5.0290436E-1,-7.306353E-3,-3.7109452E-1,-3.0840647E-1,-2.672233E-2,-4.156141E-1,-1.5632514E-2,-2.0462815E-2,-6.997271E-3,-1.5570806E-2,-2.3188308E-2],"categories":[],"categories_nodes":[],"categories_segments":[],"categories_sizes":[],"default_left":[0,0,0,0,0,0,0,0,0,0,0,0,0,0,0],"id":40,"left_children":[1,3,-1,5,7,-1,9,11,-1,13,-1,-1,-1,-1,-1],"loss_changes":[7.38223E1,3.298664E-1,0E0,1.7743587E-1,3.0083656E-2,0E0,9.928417E-2,5.8215857E-2,0E0,9.124088E-2,0E0,0E0,0E0,0E0,0E0],"parents":[2147483647,0,0,1,1,3,3,4,4,6,6,7,7,9,9],"right_children":[2,4,-1,6,8,-1,10,12,-1,14,-1,-1,-1,-1,-1],"split_conditions":[3.7880176E2,2.6248045E-2,5.2555215E-2,2.6224623E0,1.8923901E-1,-7.306353E-3,-7.28662E-2,1E0,-2.672233E-2,1.495791E-1,-1.5632514E-2,-2.0462815E-2,-6.997271E-3,-1.5570806E-2,-2.3188308E-2],"split_indices":[7,1,0,34,0,0,4,39,0,0,0,0,0,0,0],"split_type":[0,0,0,0,0,0,0,0,0,0,0,0,0,0,0],"sum_hessian":[1.7126074E2,1.233454E2,4.791534E1,9.257446E1,3.0770935E1,5.4758606E0,8.70986E1,5.7977877E0,2.4973148E1,4.596997E1,4.1128628E1,2.7325525E0,3.0652354E0,1.6889505E1,2.9080463E1],"tree_param":{"num_deleted":"0","num_feature":"41","num_nodes":"15","size_leaf_vector":"1"}},{"base_weights":[-2.9065609E-2,5.2331157E-2,-4.3045634E-1,-4.0392452E-1,-4.1409217E-2,-3.0671358E-1,-4.7010183E-1,-3.744588E-1,-1.21253915E-1,-3.276728E-1,-5.430426E-1,-8.186426E-3,-3.072006E-2,-9.911655E-3,3.293531E-3,-2.1314302E-2,-2.6692287E-3,-3.898562E-2,-1.9670775E-2],"categories":[],"categories_nodes":[],"categories_segments":[],"categories_sizes":[],"default_left":[0,0,0,0,0,0,0,0,0,0,0,0,0,0,0,0,0,0,0],"id":41,"left_children":[1,-1,3,5,-1,7,9,11,13,15,17,-1,-1,-1,-1,-1,-1,-1,-1],"loss_changes":[7.4435036E1,0E0,9.8976135E-1,6.2521553E-1,0E0,5.9936476E-1,5.41811E-1,1.7757778E0,2.3214258E-1,6.8010426E-1,1.2618542E0,0E0,0E0,0E0,0E0,0E0,0E0,0E0,0E0],"parents":[2147483647,0,0,2,2,3,3,5,5,6,6,7,7,8,8,9,9,10,10],"right_children":[2,-1,4,6,-1,8,10,12,14,16,18,-1,-1,-1,-1,-1,-1,-1,-1],"split_conditions":[2E0,5.2331157E-2,2.4014823E-2,1E0,-4.1409217E-2,6E0,3E0,4.5E0,2.3427403E-2,8.912159E-1,4.5E0,-8.186426E-3,-3.072006E-2,-9.911655E-3,3.293531E-3,-2.1314302E-2,-2.6692287E-3,-3.898562E-2,-1.9670775E-2],"split_indices":[40,0,12,39,0,40,40,40,12,17,40,0,0,0,0,0,0,0,0],"split_type":[0,0,0,0,0,0,0,0,0,0,0,0,0,0,0,0,0,0,0],"sum_hessian":[1.7035109E2,4.5855434E1,1.2449566E2,1.1859964E2,5.8960176E0,5.0318775E1,6.828087E1,3.610951E1,1.4209265E1,2.4985275E1,4.3295597E1,2.0120754E1,1.5988755E1,1.0025581E1,4.1836834E0,1.7970348E1,7.014927E0,1.5138901E1,2.8156694E1],"tree_param":{"num_deleted":"0","num_feature":"41","num_nodes":"19","size_leaf_vector":"1"}},{"base_weights":[-3.0076386E-2,-4.1267332E-1,5.2097242E-2,-3.3093306E-1,-4.721426E-1,-2.1193731E-1,-3.7341815E-1,-6.014512E-1,-3.780331E-1,-1.1973123E-2,-6.144186E-3,-4.3937936E-1,-2.4283393E-1,-3.1716853E-2,-1.612202E-2,-2.3245585E-1,-4.484776E-1,-2.2912107E-2,-9.048226E-3,-1.4820251E-2,-5.19824E-3,-5.9318272E-3,-1.4328593E-2,-2.3558838E-2,-1.102776E-2],"categories":[],"categories_nodes":[],"categories_segments":[],"categories_sizes":[],"default_left":[0,0,0,0,0,0,0,0,0,0,0,0,0,0,0,0,0,0,0,0,0,0,0,0,0],"id":42,"left_children":[1,3,-1,5,7,9,11,13,15,-1,-1,17,19,-1,-1,21,23,-1,-1,-1,-1,-1,-1,-1,-1],"loss_changes":[6.9500465E1,4.50531E-1,0E0,2.0352745E-1,6.234064E-1,1.2300551E-2,2.3689365E-1,5.0147057E-2,3.3831263E-1,0E0,0E0,4.0237427E-2,8.540672E-2,0E0,0E0,6.547123E-2,4.097557E-2,0E0,0E0,0E0,0E0,0E0,0E0,0E0,0E0],"parents":[2147483647,0,0,1,1,3,3,4,4,5,5,6,6,7,7,8,8,11,11,12,12,15,15,16,16],"right_children":[2,4,-1,6,8,10,12,14,16,-1,-1,18,20,-1,-1,22,24,-1,-1,-1,-1,-1,-1,-1,-1],"split_conditions":[4.7622505E1,1E0,5.2097242E-2,2.9007118E0,1.5395723E-1,1.4839017E-2,2.5516044E-2,9.215478E0,-2.5274984E1,-1.1973123E-2,-6.144186E-3,2.2799164E-1,1.5395723E-1,-3.1716853E-2,-1.612202E-2,1.7162184E1,3.882354E0,-2.2912107E-2,-9.048226E-3,-1.4820251E-2,-5.19824E-3,-5.9318272E-3,-1.4328593E-2,-2.3558838E-2,-1.102776E-2],"split_indices":[13,39,0,18,2,5,1,25,21,0,0,0,2,0,0,13,6,0,0,0,0,0,0,0,0],"split_type":[0,0,0,0,0,0,0,0,0,0,0,0,0,0,0,0,0,0,0,0,0,0,0,0,0],"sum_hessian":[1.6740213E2,1.2382493E2,4.3577206E1,5.4912594E1,6.891233E1,1.6022875E1,3.8889717E1,2.675685E1,4.2155483E1,1.094956E1,5.0733156E0,2.4267101E1,1.4622616E1,2.279641E1,3.96044E0,1.5149038E1,2.7006447E1,2.189557E1,2.3715305E0,9.733381E0,4.8892345E0,5.9103584E0,9.23868E0,2.3589828E1,3.4166174E0],"tree_param":{"num_deleted":"0","num_feature":"41","num_nodes":"25","size_leaf_vector":"1"}},{"base_weights":[1.8441794E-2,5.1890768E-2,-3.3894747E-1,-2.5039148E-1,-4.1853985E-1,-6.6116184E-2,-6.49631E-1,-6.086179E-1,-4.3197766E-2,-2.2422937E-1,1.7470367E-1,-3.0245492E-1,-4.9949404E-2,-4.807751E-1,-5.01824E-2,2.0842218E-1,-3.1380004E-1,2.3827235E-4,-1.3594194E-2,2.6230153E-3,1.9378299E-2,-1.7268881E-2,-1.2836781E-3,-3.5276007E-2,-1.0673636E-2,-3.0419321E-3,1.3256952E-2,-2.5663266E-2,-1.1545584E-2],"categories":[],"categories_nodes":[],"categories_segments":[],"categories_sizes":[],"default_left":[0,0,0,0,0,0,0,0,0,0,0,0,0,0,0,0,0,0,0,0,0,0,0,0,0,0,0,0,0],"id":43,"left_children":[1,-1,3,5,7,9,11,13,15,17,19,21,-1,23,-1,25,27,-1,-1,-1,-1,-1,-1,-1,-1,-1,-1,-1,-1],"loss_changes":[6.0214943E1,0E0,7.5804234E-1,4.403231E0,4.4671345E0,1.6560137E0,1.9989481E0,1.625063E0,1.5803293E0,2.8579783E-1,4.322179E-1,1.21221066E-1,0E0,1.8588204E0,0E0,2.013737E-1,6.532121E-2,0E0,0E0,0E0,0E0,0E0,0E0,0E0,0E0,0E0,0E0,0E0,0E0],"parents":[2147483647,0,0,2,2,3,3,4,4,5,5,6,6,7,7,8,8,9,9,10,10,11,11,13,13,15,15,16,16],"right_children":[2,-1,4,6,8,10,12,14,16,18,20,22,-1,24,-1,26,28,-1,-1,-1,-1,-1,-1,-1,-1,-1,-1,-1,-1],"split_conditions":[2E0,5.1890768E-2,4.5E0,2E0,2E0,3E0,3E0,1E0,6E0,2.9014277E0,2.720783E0,7.2857256E0,-4.9949404E-2,6E0,-5.01824E-2,-2.486004E0,1.1124675E-2,2.3827235E-4,-1.3594194E-2,2.6230153E-3,1.9378299E-2,-1.7268881E-2,-1.2836781E-3,-3.5276007E-2,-1.0673636E-2,-3.0419321E-3,1.3256952E-2,-2.5663266E-2,-1.1545584E-2],"split_indices":[40,0,40,39,39,40,40,39,40,16,35,33,0,40,0,33,1,0,0,0,0,0,0,0,0,0,0,0,0],"split_type":[0,0,0,0,0,0,0,0,0,0,0,0,0,0,0,0,0,0,0,0,0,0,0,0,0,0,0,0,0],"sum_hessian":[1.6331792E2,4.1900936E1,1.2141699E2,5.943472E1,6.198227E1,4.146261E1,1.797211E1,4.0733036E1,2.1249233E1,2.5070898E1,1.6391708E1,9.949986E0,8.022125E0,3.2448765E1,8.284271E0,1.112988E1,1.0119353E1,4.473642E0,2.0597256E1,1.1203927E1,5.187782E0,8.399564E0,1.5504233E0,1.6737034E1,1.5711732E1,1.9238435E0,9.206037E0,1.4464115E0,8.672941E0],"tree_param":{"num_deleted":"0","num_feature":"41","num_nodes":"29","size_leaf_vector":"1"}},{"base_weights":[-2.8525643E-2,5.1657546E-2,-3.8872477E-1,-2.6603574E-1,-4.9997836E-1,-8.573469E-2,-6.4275384E-1,-5.940713E-1,-2.8332233E-1,-2.3666298E-1,1.3491069E-1,-3.130369E-1,-4.9466543E-2,-4.6881294E-1,-4.9742192E-2,-1.08081205E-2,-5.106846E-1,-2.0080023E-2,-5.2399165E-3,7.532867E-4,1.7763244E-2,-1.8074527E-2,-3.3652168E-3,-3.308482E-2,-1.1452339E-2,2.066234E-2,-1.1808208E-2,-3.1492885E-2,-8.614676E-3],"categories":[],"categories_nodes":[],"categories_segments":[],"categories_sizes":[],"default_left":[0,0,0,0,0,0,0,0,0,0,0,0,0,0,0,0,0,0,0,0,0,0,0,0,0,0,0,0,0],"id":44,"left_children":[1,-1,3,5,7,9,11,13,15,17,19,21,-1,23,-1,25,27,-1,-1,-1,-1,-1,-1,-1,-1,-1,-1,-1,-1],"loss_changes":[6.088152E1,0E0,1.4887638E0,3.927927E0,1.0787706E0,1.3910767E0,1.8417587E0,1.6289225E0,1.2606171E0,4.9291706E-1,4.4925994E-1,1.0796821E-1,0E0,1.4065714E0,0E0,1.0834426E0,3.398664E-1,0E0,0E0,0E0,0E0,0E0,0E0,0E0,0E0,0E0,0E0,0E0,0E0],"parents":[2147483647,0,0,2,2,3,3,4,4,5,5,6,6,7,7,8,8,9,9,10,10,11,11,13,13,15,15,16,16],"right_children":[2,-1,4,6,8,10,12,14,16,18,20,22,-1,24,-1,26,28,-1,-1,-1,-1,-1,-1,-1,-1,-1,-1,-1,-1],"split_conditions":[2E0,5.1657546E-2,4.5E0,2E0,2E0,3E0,3E0,1E0,6E0,1E0,2.720783E0,2.6248045E-2,-4.9466543E-2,6E0,-4.9742192E-2,2.5879817E0,1.4857896E1,-2.0080023E-2,-5.2399165E-3,7.532867E-4,1.7763244E-2,-1.8074527E-2,-3.3652168E-3,-3.308482E-2,-1.1452339E-2,2.066234E-2,-1.1808208E-2,-3.1492885E-2,-8.614676E-3],"split_indices":[40,0,40,39,39,40,40,39,40,39,35,1,0,40,0,20,13,0,0,0,0,0,0,0,0,0,0,0,0],"split_type":[0,0,0,0,0,0,0,0,0,0,0,0,0,0,0,0,0,0,0,0,0,0,0,0,0,0,0,0,0],"sum_hessian":[1.5715254E2,3.9337658E1,1.1781489E2,5.7640705E1,6.0174183E1,3.9813263E1,1.7827444E1,4.073926E1,1.9434921E1,2.3598536E1,1.6214725E1,1.0111279E1,7.716166E0,3.269154E1,8.047719E0,9.316178E0,1.0118742E1,9.575663E0,1.4022872E1,1.1194627E1,5.020099E0,8.0524235E0,2.0588543E0,1.7141804E1,1.5549737E1,2.943539E0,6.3726397E0,6.84631E0,3.272432E0],"tree_param":{"num_deleted":"0","num_feature":"41","num_nodes":"29","size_leaf_vector":"1"}},{"base_weights":[-1.4435436E-2,5.1478554E-2,-3.620389E-1,-3.2376844E-1,-2.480934E-2,-2.306067E-2,-2.8841725E-1,-2.1490432E-1,-3.558211E-1,-2.4934511E-3,-3.0996079E-2,-2.7969494E-2,3.9788675E-3],"categories":[],"categories_nodes":[],"categories_segments":[],"categories_sizes":[],"default_left":[0,0,0,0,0,0,0,0,0,0,0,0,0],"id":45,"left_children":[1,-1,3,5,-1,-1,7,9,11,-1,-1,-1,-1],"loss_changes":[5.7007015E1,0E0,4.4422054E-1,3.263569E-1,0E0,0E0,3.0939198E-1,2.6275957E0,3.5099783E0,0E0,0E0,0E0,0E0],"parents":[2147483647,0,0,2,2,3,3,6,6,7,7,8,8],"right_children":[2,-1,4,6,-1,-1,8,10,12,-1,-1,-1,-1],"split_conditions":[2E0,5.1478554E-2,-5.9921625E-3,-5.398221E0,-2.480934E-2,-2.306067E-2,4.5E0,2E0,2E0,-2.4934511E-3,-3.0996079E-2,-2.7969494E-2,3.9788675E-3],"split_indices":[40,0,5,17,0,0,40,39,39,0,0,0,0],"split_type":[0,0,0,0,0,0,0,0,0,0,0,0,0],"sum_hessian":[1.5506013E2,3.824166E1,1.1681848E2,9.354495E1,2.3273523E1,1.6673193E1,7.6871765E1,3.8772972E1,3.809879E1,2.8345823E1,1.042715E1,2.5766834E1,1.2331956E1],"tree_param":{"num_deleted":"0","num_feature":"41","num_nodes":"13","size_leaf_vector":"1"}},{"base_weights":[-5.2625258E-3,5.128311E-2,-3.359274E-1,-2.5699806E-1,-4.1024885E-1,-6.405392E-2,-6.780452E-1,-5.7604533E-1,-7.185277E-2,-2.5667388E-2,-2.6856098E-2,-3.8221937E-1,-4.8985135E-2,-4.507191E-1,-4.8954573E-2,1.7409252E-1,-3.460555E-1,-5.404458E-3,4.5082034E-3,3.7264784E-3,-2.2695092E-2,-3.210614E-2,-9.9110305E-3,-1.0371551E-2,2.0356191E-2,2.5231068E-3,-2.1860704E-2],"categories":[],"categories_nodes":[],"categories_segments":[],"categories_sizes":[],"default_left":[0,0,0,0,0,0,0,0,0,0,0,0,0,0,0,0,0,0,0,0,0,0,0,0,0,0,0],"id":46,"left_children":[1,-1,3,5,7,9,11,13,15,17,-1,19,-1,21,-1,23,25,-1,-1,-1,-1,-1,-1,-1,-1,-1,-1],"loss_changes":[5.295463E1,0E0,5.844526E-1,4.807435E0,3.262826E0,7.498477E-1,1.2906961E0,1.5481148E0,1.4433364E0,3.9110866E-1,0E0,3.9596415E-1,0E0,1.4142227E0,0E0,1.1048154E0,3.846799E-1,0E0,0E0,0E0,0E0,0E0,0E0,0E0,0E0,0E0,0E0],"parents":[2147483647,0,0,2,2,3,3,4,4,5,5,6,6,7,7,8,8,9,9,11,11,13,13,15,15,16,16],"right_children":[2,-1,4,6,8,10,12,14,16,18,-1,20,-1,22,-1,24,26,-1,-1,-1,-1,-1,-1,-1,-1,-1,-1],"split_conditions":[2E0,5.128311E-2,4.5E0,2E0,2E0,3.4188886E0,3E0,1E0,6E0,3E0,-2.6856098E-2,1.4977756E-1,-4.8985135E-2,6E0,-4.8954573E-2,1.2344561E1,-7.0332313E0,-5.404458E-3,4.5082034E-3,3.7264784E-3,-2.2695092E-2,-3.210614E-2,-9.9110305E-3,-1.0371551E-2,2.0356191E-2,2.5231068E-3,-2.1860704E-2],"split_indices":[40,0,40,39,39,36,40,39,40,40,0,0,0,40,0,8,37,0,0,0,0,0,0,0,0,0,0],"split_type":[0,0,0,0,0,0,0,0,0,0,0,0,0,0,0,0,0,0,0,0,0,0,0,0,0,0,0],"sum_hessian":[1.5333127E2,3.6726387E1,1.1660488E2,5.8711357E1,5.7893524E1,4.105164E1,1.7659716E1,3.838472E1,1.9508804E1,3.8945698E1,2.1059442E0,1.0060636E1,7.59908E0,3.089597E1,7.488752E0,1.0476783E1,9.0320215E0,2.279347E1,1.6152227E1,1.3593519E0,8.701283E0,1.6696384E1,1.4199584E1,4.014318E0,6.462465E0,1.7717549E0,7.2602673E0],"tree_param":{"num_deleted":"0","num_feature":"41","num_nodes":"27","size_leaf_vector":"1"}},{"base_weights":[1.632127E-2,-2.9988205E-1,5.1082518E-2,-3.3416012E-1,-1.3844651E-1,-3.779029E-1,-2.8710654E-1,-3.8062945E-2,-1.6490375E-1,-7.935305E-3,-4.010597E-1,-7.953237E-3,-1.49148E-2,3.7954763E-2,-7.878694E-3,-1.8811856E-1,-8.257058E-2,-1.808105E-2,-2.6542434E-2,2.3072143E-3,3.6748248E-4,-6.7870505E-3,-1.2381085E-2,-9.521025E-3,8.398081E-3],"categories":[],"categories_nodes":[],"categories_segments":[],"categories_sizes":[],"default_left":[0,0,0,0,0,0,0,0,0,0,0,0,0,0,0,0,0,0,0,0,0,0,0,0,0],"id":47,"left_children":[1,3,-1,5,7,9,11,13,15,-1,17,-1,-1,19,-1,21,23,-1,-1,-1,-1,-1,-1,-1,-1],"loss_changes":[4.777032E1,5.865593E-1,0E0,8.4197044E-2,5.1452577E-2,1.6656923E-1,2.3136139E-2,5.8982342E-2,1.6773403E-2,0E0,1.4659882E-2,0E0,0E0,7.5659575E-4,0E0,5.0416887E-3,1.8059063E-1,0E0,0E0,0E0,0E0,0E0,0E0,0E0,0E0],"parents":[2147483647,0,0,1,1,3,3,4,4,5,5,6,6,7,7,8,8,10,10,13,13,15,15,16,16],"right_children":[2,4,-1,6,8,10,12,14,16,-1,18,-1,-1,20,-1,22,24,-1,-1,-1,-1,-1,-1,-1,-1],"split_conditions":[4.7622505E1,3.2081635E0,5.1082518E-2,2.8264642E0,1.8923901E-1,1.20981045E1,2.886596E0,2E0,2E0,-7.935305E-3,-2.0935417E1,-7.953237E-3,-1.49148E-2,1E0,-7.878694E-3,2.0507957E-1,2.0507957E-1,-1.808105E-2,-2.6542434E-2,2.3072143E-3,3.6748248E-4,-6.7870505E-3,-1.2381085E-2,-9.521025E-3,8.398081E-3],"split_indices":[13,28,0,38,0,8,38,39,39,0,19,0,0,39,0,0,0,0,0,0,0,0,0,0,0],"split_type":[0,0,0,0,0,0,0,0,0,0,0,0,0,0,0,0,0,0,0,0,0,0,0,0,0],"sum_hessian":[1.4831009E2,1.1335772E2,3.4952377E1,9.2621254E1,2.0736465E1,4.435545E1,4.8265804E1,4.83401E0,1.5902455E1,4.9885488E0,3.9366898E1,5.1017466E0,4.316406E1,3.3717473E0,1.4622626E0,1.1402531E1,4.4999247E0,3.3096237E1,6.2706604E0,2.2594242E0,1.112323E0,7.8094835E0,3.593047E0,3.313468E0,1.1864566E0],"tree_param":{"num_deleted":"0","num_feature":"41","num_nodes":"25","size_leaf_vector":"1"}},{"base_weights":[-2.045852E-2,5.0918646E-2,-3.3767655E-1,-3.9360675E-1,-2.3490842E-1,-2.9432818E-1,-4.296937E-1,-1.12723224E-1,-3.4048438E-1,-3.4969676E-1,-8.553849E-2,-3.4484756E-1,-4.931099E-1,6.98338E-2,-5.4532176E-1,-4.8204955E-1,-3.709281E-2,-2.076687E-2,-7.408029E-3,9.937844E-3,-1.6672349E-2,-1.0146817E-2,-3.0789852E-2,-3.3090398E-2,-6.312672E-3,-6.086144E-3,1.6625386E-2,-6.035298E-3,-4.0564384E-2,-3.3157486E-2,-1.1762934E-2,-1.6636487E-2,5.279596E-3],"categories":[],"categories_nodes":[],"categories_segments":[],"categories_sizes":[],"default_left":[0,0,0,0,0,0,0,0,0,0,0,0,0,0,0,0,0,0,0,0,0,0,0,0,0,0,0,0,0,0,0,0,0],"id":48,"left_children":[1,-1,3,5,7,9,11,13,15,17,19,21,23,25,27,29,31,-1,-1,-1,-1,-1,-1,-1,-1,-1,-1,-1,-1,-1,-1,-1,-1],"loss_changes":[4.9185978E1,0E0,5.6448174E-1,1.3339138E-1,5.132284E-1,2.303214E-1,1.04483604E-1,1.7215104E0,9.4611335E-1,1.695559E-1,4.9212277E-1,8.420563E-1,1.5795345E0,8.393462E-1,6.2930226E-1,5.242498E-1,3.820566E-1,0E0,0E0,0E0,0E0,0E0,0E0,0E0,0E0,0E0,0E0,0E0,0E0,0E0,0E0,0E0,0E0],"parents":[2147483647,0,0,2,2,3,3,4,4,5,5,6,6,7,7,8,8,9,9,10,10,11,11,12,12,13,13,14,14,15,15,16,16],"right_children":[2,-1,4,6,8,10,12,14,16,18,20,22,24,26,28,30,32,-1,-1,-1,-1,-1,-1,-1,-1,-1,-1,-1,-1,-1,-1,-1,-1],"split_conditions":[2E0,5.0918646E-2,4.027664E2,-2.5686207E1,4.5E0,6E0,4.5E0,2E0,2E0,2E0,1E0,2E0,2E0,3E0,3E0,6E0,2.3726315E0,-2.076687E-2,-7.408029E-3,9.937844E-3,-1.6672349E-2,-1.0146817E-2,-3.0789852E-2,-3.3090398E-2,-6.312672E-3,-6.086144E-3,1.6625386E-2,-6.035298E-3,-4.0564384E-2,-3.3157486E-2,-1.1762934E-2,-1.6636487E-2,5.279596E-3],"split_indices":[40,0,9,21,40,40,40,39,39,39,39,39,39,40,40,40,28,0,0,0,0,0,0,0,0,0,0,0,0,0,0,0,0],"split_type":[0,0,0,0,0,0,0,0,0,0,0,0,0,0,0,0,0,0,0,0,0,0,0,0,0,0,0,0,0,0,0,0,0],"sum_hessian":[1.4721472E2,3.3920597E1,1.1329412E2,7.153313E1,4.176099E1,2.1510857E1,5.002227E1,2.0316265E1,2.1444727E1,1.6468681E1,5.042176E0,2.4149666E1,2.5872604E1,1.4876808E1,5.4394574E0,1.4220464E1,7.2242627E0,1.1622393E1,4.846289E0,2.4410753E0,2.6011002E0,1.6996595E1,7.153072E0,1.7172073E1,8.700531E0,8.913315E0,5.9634933E0,2.6548376E0,2.7846196E0,7.2287607E0,6.991703E0,1.918105E0,5.3061576E0],"tree_param":{"num_deleted":"0","num_feature":"41","num_nodes":"33","size_leaf_vector":"1"}},{"base_weights":[-3.665513E-2,5.0708007E-2,-3.3807865E-1,-3.5985994E-1,-1.13531135E-1,-2.9793563E-1,-4.123476E-1,-5.39621E-3,-2.02979E-1,-1.6782638E-1,-5.8335084E-1,-5.8674175E-1,-5.7960022E-2,1.7841053E-1,-1.7220322E-2,-1.999677E-2,9.863952E-3,-7.802408E-4,-1.7284673E-2,-1.4250386E-2,-4.6792995E-2,-2.3314446E-2,-4.7978047E-2,1.1341933E-2,-1.8609462E-2,-1.7392833E-3,2.0307256E-2],"categories":[],"categories_nodes":[],"categories_segments":[],"categories_sizes":[],"default_left":[0,0,0,0,0,0,0,0,0,0,0,0,0,0,0,0,0,0,0,0,0,0,0,0,0,0,0],"id":49,"left_children":[1,-1,3,5,7,9,11,13,15,17,19,21,23,25,-1,-1,-1,-1,-1,-1,-1,-1,-1,-1,-1,-1,-1],"loss_changes":[4.67036E1,0E0,5.1911545E-1,2.1487331E-1,1.1095661E-1,1.8061104E0,3.280776E0,4.5225728E-1,5.7656217E-1,9.861511E-1,1.3792229E0,1.1618614E0,1.7667419E0,2.4356528E-1,0E0,0E0,0E0,0E0,0E0,0E0,0E0,0E0,0E0,0E0,0E0,0E0,0E0],"parents":[2147483647,0,0,2,2,3,3,4,4,5,5,6,6,7,7,8,8,9,9,10,10,11,11,12,12,13,13],"right_children":[2,-1,4,6,8,10,12,14,16,18,20,22,24,26,-1,-1,-1,-1,-1,-1,-1,-1,-1,-1,-1,-1,-1],"split_conditions":[2E0,5.0708007E-2,1.971093E1,4.5E0,4.5E0,2E0,2E0,2E0,2E0,2.8084397E0,3E0,1E0,6E0,3E0,-1.7220322E-2,-1.999677E-2,9.863952E-3,-7.802408E-4,-1.7284673E-2,-1.4250386E-2,-4.6792995E-2,-2.3314446E-2,-4.7978047E-2,1.1341933E-2,-1.8609462E-2,-1.7392833E-3,2.0307256E-2],"split_indices":[40,0,13,40,40,39,39,39,39,20,40,39,40,40,0,0,0,0,0,0,0,0,0,0,0,0,0],"split_type":[0,0,0,0,0,0,0,0,0,0,0,0,0,0,0,0,0,0,0,0,0,0,0,0,0,0,0],"sum_hessian":[1.4536823E2,3.1876518E1,1.1349171E2,1.0290704E2,1.0584664E1,5.0272484E1,5.263456E1,5.2718134E0,5.3128505E0,3.5621906E1,1.4650576E1,3.4836075E1,1.7798483E1,3.7255836E0,1.5462298E0,3.5612564E0,1.7515942E0,1.9780855E1,1.5841052E1,8.914431E0,5.7361445E0,2.803051E1,6.8055663E0,9.482353E0,8.316131E0,2.3618064E0,1.3637773E0],"tree_param":{"num_deleted":"0","num_feature":"41","num_nodes":"27","size_leaf_vector":"1"}},{"base_weights":[-3.8400298E-4,5.0531518E-2,-2.8695464E-1,-2.0757294E-1,-3.621725E-1,-7.746586E-2,-5.581075E-1,-5.1255894E-1,-6.973308E-2,-1.905734E-1,8.803472E-2,-1.6449626E-1,-4.7353648E-2,-3.8218296E-1,-4.7691118E-2,2.2013797E-1,-4.0300167E-1,-2.0185499E-2,-1.6457214E-3,-7.869596E-3,1.400762E-2,-2.7766852E-2,3.1303504E-4,-2.682629E-2,-1.0051612E-2,1.8465517E-2,-1.4347054E-2,-4.6617794E-4,-2.497393E-2],"categories":[],"categories_nodes":[],"categories_segments":[],"categories_sizes":[],"default_left":[0,0,0,0,0,0,0,0,0,0,0,0,0,0,0,0,0,0,0,0,0,0,0,0,0,0,0,0,0],"id":50,"left_children":[1,-1,3,5,7,9,11,13,15,17,19,21,-1,23,-1,25,27,-1,-1,-1,-1,-1,-1,-1,-1,-1,-1,-1,-1],"loss_changes":[4.142935E1,0E0,5.9006214E-1,2.5357919E0,2.4211082E0,8.1052625E-1,2.1631265E0,1.7488337E0,2.033308E0,8.437281E-1,8.880149E-1,5.866662E-1,0E0,7.3162603E-1,0E0,9.692238E-1,3.6440313E-1,0E0,0E0,0E0,0E0,0E0,0E0,0E0,0E0,0E0,0E0,0E0,0E0],"parents":[2147483647,0,0,2,2,3,3,4,4,5,5,6,6,7,7,8,8,9,9,10,10,11,11,13,13,15,15,16,16],"right_children":[2,-1,4,6,8,10,12,14,16,18,20,22,-1,24,-1,26,28,-1,-1,-1,-1,-1,-1,-1,-1,-1,-1,-1,-1],"split_conditions":[2E0,5.0531518E-2,4.5E0,2E0,2E0,3E0,3E0,1E0,6E0,1E0,2.712374E0,2.4863374E0,-4.7353648E-2,6E0,-4.7691118E-2,-2.0156107E0,2.47094E0,-2.0185499E-2,-1.6457214E-3,-7.869596E-3,1.400762E-2,-2.7766852E-2,3.1303504E-4,-2.682629E-2,-1.0051612E-2,1.8465517E-2,-1.4347054E-2,-4.6617794E-4,-2.497393E-2],"split_indices":[40,0,40,39,39,40,40,39,40,39,22,32,0,40,0,31,26,0,0,0,0,0,0,0,0,0,0,0,0],"split_type":[0,0,0,0,0,0,0,0,0,0,0,0,0,0,0,0,0,0,0,0,0,0,0,0,0,0,0,0,0],"sum_hessian":[1.4099345E2,3.058029E1,1.1041316E2,5.554888E1,5.4864285E1,4.140258E1,1.4146302E1,3.5734955E1,1.912933E1,2.4504232E1,1.6898346E1,7.738391E0,6.4079113E0,2.9025246E1,6.709707E0,1.0412331E1,8.717E0,9.755405E0,1.4748827E1,7.499119E0,9.399228E0,1.6681051E0,6.070286E0,1.4613007E1,1.441224E1,8.255439E0,2.1568916E0,1.9316131E0,6.785387E0],"tree_param":{"num_deleted":"0","num_feature":"41","num_nodes":"29","size_leaf_vector":"1"}},{"base_weights":[-3.9056877E-3,5.0321814E-2,-2.7533796E-1,-1.8060581E-1,-3.620943E-1,3.4964204E-2,-7.013645E-1,-4.9881905E-1,-1.00727074E-1,-3.1657138E-1,8.1694305E-2,-4.5375782E-1,-4.700098E-2,-3.580315E-1,-4.7823872E-2,7.5159E-2,-3.074591E-1,-2.137181E-2,-6.2137684E-3,-2.507918E-4,9.669021E-3,-3.0492136E-2,-7.452789E-3,-3.0418867E-2,-2.8435513E-3,-9.638124E-3,7.894787E-3,-2.0673571E-2,1.9231556E-3],"categories":[],"categories_nodes":[],"categories_segments":[],"categories_sizes":[],"default_left":[0,0,0,0,0,0,0,0,0,0,0,0,0,0,0,0,0,0,0,0,0,0,0,0,0,0,0,0,0],"id":51,"left_children":[1,-1,3,5,7,9,11,13,15,17,19,21,-1,23,-1,25,27,-1,-1,-1,-1,-1,-1,-1,-1,-1,-1,-1,-1],"loss_changes":[3.8351555E1,0E0,8.4046936E-1,6.16333E0,1.9701414E0,6.768255E-1,5.223026E-1,2.0329628E0,7.747253E-1,5.037713E-2,3.473996E-1,3.7583852E-1,0E0,2.2115333E0,0E0,2.9582328E-1,3.7157142E-1,0E0,0E0,0E0,0E0,0E0,0E0,0E0,0E0,0E0,0E0,0E0,0E0],"parents":[2147483647,0,0,2,2,3,3,4,4,5,5,6,6,7,7,8,8,9,9,10,10,11,11,13,13,15,15,16,16],"right_children":[2,-1,4,6,8,10,12,14,16,18,20,22,-1,24,-1,26,28,-1,-1,-1,-1,-1,-1,-1,-1,-1,-1,-1,-1],"split_conditions":[2E0,5.0321814E-2,4.5E0,2E0,2E0,-9.370855E0,3E0,1E0,6E0,1E0,3E0,2.971518E0,-4.700098E-2,6E0,-4.7823872E-2,1.359626E-2,2.3435736E-2,-2.137181E-2,-6.2137684E-3,-2.507918E-4,9.669021E-3,-3.0492136E-2,-7.452789E-3,-3.0418867E-2,-2.8435513E-3,-9.638124E-3,7.894787E-3,-2.0673571E-2,1.9231556E-3],"split_indices":[40,0,40,39,39,13,40,39,40,39,40,28,0,40,0,12,12,0,0,0,0,0,0,0,0,0,0,0,0],"split_type":[0,0,0,0,0,0,0,0,0,0,0,0,0,0,0,0,0,0,0,0,0,0,0,0,0,0,0,0,0],"sum_hessian":[1.3783652E2,2.861524E1,1.09221275E2,5.3683853E1,5.5537426E1,3.862694E1,1.5056909E1,3.5866615E1,1.9670809E1,3.8547127E0,3.4772232E1,8.813812E0,6.243096E0,2.879182E1,7.0747957E0,1.0972191E1,8.698617E0,1.6694299E0,2.1852827E0,2.0112503E1,1.4659727E1,5.1660447E0,3.6477678E0,1.516527E1,1.3626551E1,2.2750854E0,8.697105E0,6.5086756E0,2.1899414E0],"tree_param":{"num_deleted":"0","num_feature":"41","num_nodes":"29","size_leaf_vector":"1"}},{"base_weights":[3.953585E-3,5.017788E-2,-2.587778E-1,-1.7004524E-1,-3.4019008E-1,-1.6496684E-2,-5.6179E-1,-5.115647E-1,-9.862627E-3,-1.5732145E-1,1.8607087E-1,-2.3766343E-1,-4.6398003E-2,-3.90763E-1,-4.704347E-2,3.3726773E-1,-4.0960005E-1,-1.6401242E-2,-2.8725183E-3,1.7267084E-2,2.7210836E-3,-1.5500585E-2,6.3540987E-3,-2.9395252E-2,-7.5185457E-3,-2.164682E-4,2.2557413E-2,-2.362313E-2,3.03643E-3],"categories":[],"categories_nodes":[],"categories_segments":[],"categories_sizes":[],"default_left":[0,0,0,0,0,0,0,0,0,0,0,0,0,0,0,0,0,0,0,0,0,0,0,0,0,0,0,0,0],"id":52,"left_children":[1,-1,3,5,7,9,11,13,15,17,19,21,-1,23,-1,25,27,-1,-1,-1,-1,-1,-1,-1,-1,-1,-1,-1,-1],"loss_changes":[3.642955E1,0E0,7.3572636E-1,3.2728019E0,3.1815476E0,1.176866E0,1.5993924E0,1.5534096E0,2.9477422E0,3.949687E-1,3.3673692E-1,2.8951734E-1,0E0,1.3626575E0,0E0,4.4485927E-1,3.2028282E-1,0E0,0E0,0E0,0E0,0E0,0E0,0E0,0E0,0E0,0E0,0E0,0E0],"parents":[2147483647,0,0,2,2,3,3,4,4,5,5,6,6,7,7,8,8,9,9,10,10,11,11,13,13,15,15,16,16],"right_children":[2,-1,4,6,8,10,12,14,16,18,20,22,-1,24,-1,26,28,-1,-1,-1,-1,-1,-1,-1,-1,-1,-1,-1,-1],"split_conditions":[2E0,5.017788E-2,4.5E0,2E0,2E0,3E0,3E0,1E0,6E0,2.8330407E0,2.709265E0,3.2081635E0,-4.6398003E-2,6E0,-4.704347E-2,2.8787775E0,-2.0465973E1,-1.6401242E-2,-2.8725183E-3,1.7267084E-2,2.7210836E-3,-1.5500585E-2,6.3540987E-3,-2.9395252E-2,-7.5185457E-3,-2.164682E-4,2.2557413E-2,-2.362313E-2,3.03643E-3],"split_indices":[40,0,40,39,39,40,40,39,40,34,20,28,0,40,0,18,19,0,0,0,0,0,0,0,0,0,0,0,0],"split_type":[0,0,0,0,0,0,0,0,0,0,0,0,0,0,0,0,0,0,0,0,0,0,0,0,0,0,0,0,0],"sum_hessian":[1.3672311E2,2.7869474E1,1.0885364E2,5.356308E1,5.5290554E1,3.9228973E1,1.4334107E1,3.604281E1,1.9247746E1,2.3272982E1,1.5955993E1,8.478318E0,5.8557887E0,2.9618662E1,6.424146E0,1.038539E1,8.862354E0,7.7470145E0,1.5525967E1,6.48598E0,9.470013E0,7.2001996E0,1.2781193E0,1.5478973E1,1.41396885E1,2.8371208E0,7.5482697E0,7.813492E0,1.0488626E0],"tree_param":{"num_deleted":"0","num_feature":"41","num_nodes":"29","size_leaf_vector":"1"}},{"base_weights":[-1.4077033E-2,5.0022848E-2,-2.749277E-1,-1.9678299E-1,-3.4884888E-1,-4.3143444E-2,-5.628875E-1,-5.1086026E-1,-4.152142E-2,2.6997551E-2,-3.0039626E-1,-2.3687287E-1,-4.665238E-2,-3.9751118E-1,-4.6302464E-2,-1.2873068E-1,3.030434E-1,-3.5885063E-3,7.659585E-3,-4.9289498E-3,-2.1337457E-2,-3.5952646E-3,-1.7199893E-2,-2.9698482E-2,-7.999684E-3,-2.7082234E-3,-2.3662139E-2,2.2562044E-2,4.316581E-3],"categories":[],"categories_nodes":[],"categories_segments":[],"categories_sizes":[],"default_left":[0,0,0,0,0,0,0,0,0,0,0,0,0,0,0,0,0,0,0,0,0,0,0,0,0,0,0,0,0],"id":53,"left_children":[1,-1,3,5,7,9,11,13,15,17,19,21,-1,23,-1,25,27,-1,-1,-1,-1,-1,-1,-1,-1,-1,-1,-1,-1],"loss_changes":[3.616637E1,0E0,5.590801E-1,3.076061E0,2.6948204E0,7.2821873E-1,1.7352352E0,1.3087187E0,6.3754153E-1,4.1328037E-1,1.7806154E-1,1.5127021E-1,0E0,1.2927814E0,0E0,4.007294E-1,9.982476E-2,0E0,0E0,0E0,0E0,0E0,0E0,0E0,0E0,0E0,0E0,0E0,0E0],"parents":[2147483647,0,0,2,2,3,3,4,4,5,5,6,6,7,7,8,8,9,9,10,10,11,11,13,13,15,15,16,16],"right_children":[2,-1,4,6,8,10,12,14,16,18,20,22,-1,24,-1,26,28,-1,-1,-1,-1,-1,-1,-1,-1,-1,-1,-1,-1],"split_conditions":[2E0,5.0022848E-2,4.5E0,2E0,2E0,7.3375654E0,3E0,1E0,-2.0156107E0,3E0,1E0,-1.9572686E0,-4.665238E-2,6E0,-4.6302464E-2,-2.2383525E0,2.1772994E-1,-3.5885063E-3,7.659585E-3,-4.9289498E-3,-2.1337457E-2,-3.5952646E-3,-1.7199893E-2,-2.9698482E-2,-7.999684E-3,-2.7082234E-3,-2.3662139E-2,2.2562044E-2,4.316581E-3],"split_indices":[40,0,40,39,39,14,40,39,31,40,39,33,0,40,0,31,0,0,0,0,0,0,0,0,0,0,0,0,0],"split_type":[0,0,0,0,0,0,0,0,0,0,0,0,0,0,0,0,0,0,0,0,0,0,0,0,0,0,0,0,0],"sum_hessian":[1.3462222E2,2.6953981E1,1.0766824E2,5.411909E1,5.3549156E1,3.8908558E1,1.5210534E1,3.463083E1,1.8918327E1,3.1276068E1,7.6324887E0,8.959483E0,6.2510514E0,2.8741615E1,5.889212E0,1.55971E1,3.321226E0,1.778649E1,1.3489579E1,3.624092E0,4.0083966E0,4.1853943E0,4.7740884E0,1.4909084E1,1.3832531E1,1.377324E1,1.8238604E0,1.3296994E0,1.9915266E0],"tree_param":{"num_deleted":"0","num_feature":"41","num_nodes":"29","size_leaf_vector":"1"}},{"base_weights":[2.8522683E-3,4.983891E-2,-2.4239087E-1,-1.8366003E-1,-3.0137268E-1,-8.781471E-2,-2.7733913E-1,-3.432907E-1,-1.5834361E-1,5.3207897E-2,-4.770286E-1,-4.326838E-1,1.0448631E-2,-2.5315675E-1,-4.2144528E-1,-2.2754064E-1,1.832705E-2,-3.4608424E-3,1.074073E-2,-9.407873E-3,-3.882834E-2,-1.5816469E-2,-3.972576E-2,1.1579859E-2,-1.0609301E-2,-1.743222E-2,-8.332177E-3,-1.5956867E-2,-2.808775E-2,-3.30583E-3,-3.305119E-2,9.504155E-3,-7.7423006E-3],"categories":[],"categories_nodes":[],"categories_segments":[],"categories_sizes":[],"default_left":[0,0,0,0,0,0,0,0,0,0,0,0,0,0,0,0,0,0,0,0,0,0,0,0,0,0,0,0,0,0,0,0,0],"id":54,"left_children":[1,-1,3,5,7,9,11,13,15,17,19,21,23,25,27,29,31,-1,-1,-1,-1,-1,-1,-1,-1,-1,-1,-1,-1,-1,-1,-1,-1],"loss_changes":[3.2739838E1,0E0,3.178749E-1,4.8335838E-1,2.5858402E-1,1.6398202E0,1.2622421E0,1.7163038E-1,1.7148674E-1,4.5982912E-1,5.394585E-1,5.188718E-1,5.8279E-1,1.141659E-1,1.028924E-1,6.496731E-1,1.7152864E-1,0E0,0E0,0E0,0E0,0E0,0E0,0E0,0E0,0E0,0E0,0E0,0E0,0E0,0E0,0E0,0E0],"parents":[2147483647,0,0,2,2,3,3,4,4,5,5,6,6,7,7,8,8,9,9,10,10,11,11,12,12,13,13,14,14,15,15,16,16],"right_children":[2,-1,4,6,8,10,12,14,16,18,20,22,24,26,28,30,32,-1,-1,-1,-1,-1,-1,-1,-1,-1,-1,-1,-1,-1,-1,-1,-1],"split_conditions":[2E0,4.983891E-2,-1.9401126E0,4.5E0,6E0,2E0,2E0,3.0896423E0,2E0,3E0,3E0,1E0,6E0,3E0,4.5E0,1E0,1.5597381E1,-3.4608424E-3,1.074073E-2,-9.407873E-3,-3.882834E-2,-1.5816469E-2,-3.972576E-2,1.1579859E-2,-1.0609301E-2,-1.743222E-2,-8.332177E-3,-1.5956867E-2,-2.808775E-2,-3.30583E-3,-3.305119E-2,9.504155E-3,-7.7423006E-3],"split_indices":[40,0,33,40,40,39,39,30,39,40,40,39,40,40,40,39,8,0,0,0,0,0,0,0,0,0,0,0,0,0,0,0,0],"split_type":[0,0,0,0,0,0,0,0,0,0,0,0,0,0,0,0,0,0,0,0,0,0,0,0,0,0,0,0,0,0,0,0,0],"sum_hessian":[1.3232414E2,2.5581701E1,1.0674244E2,5.554632E1,5.119612E1,2.8413345E1,2.7132975E1,3.8509785E1,1.2686336E1,2.1490173E1,6.9231706E0,1.7294247E1,9.838728E0,1.9852978E1,1.8656809E1,8.908993E0,3.7773438E0,1.2552645E1,8.93753E0,4.3531756E0,2.569995E0,1.4504324E1,2.7899234E0,4.915642E0,4.9230866E0,7.9967413E0,1.1856236E1,1.2683243E1,5.9735656E0,7.3313913E0,1.5776007E0,1.8474061E0,1.9299375E0],"tree_param":{"num_deleted":"0","num_feature":"41","num_nodes":"33","size_leaf_vector":"1"}},{"base_weights":[-1.9620735E-2,-2.5398237E-1,4.959873E-2,-1.8642234E-2,-2.2204156E-1,-1.7188419E-2,-1.9179639E-1,-1.4511487E-1,-2.2351098E-1,-8.150331E-3,2.952125E-3,-3.5767027E-3,-1.2960039E-2],"categories":[],"categories_nodes":[],"categories_segments":[],"categories_sizes":[],"default_left":[0,0,0,0,0,0,0,0,0,0,0,0,0],"id":55,"left_children":[1,3,-1,-1,5,-1,7,9,11,-1,-1,-1,-1],"loss_changes":[3.1013403E1,3.2018661E-1,0E0,0E0,2.511778E-1,0E0,7.305431E-2,1.2532806E-1,2.0154953E-1,0E0,0E0,0E0,0E0],"parents":[2147483647,0,0,1,1,4,4,6,6,7,7,8,8],"right_children":[2,4,-1,-1,6,-1,8,10,12,-1,-1,-1,-1],"split_conditions":[4.7622505E1,1.116773E-2,4.959873E-2,-1.8642234E-2,2.4703453E0,-1.7188419E-2,1E0,1.3540835E0,9.832863E0,-8.150331E-3,2.952125E-3,-3.5767027E-3,-1.2960039E-2],"split_indices":[13,1,0,0,26,0,39,4,10,0,0,0,0],"split_type":[0,0,0,0,0,0,0,0,0,0,0,0,0],"sum_hessian":[1.2875185E2,1.05141975E2,2.3609867E1,2.0008974E1,8.5133E1,1.4879976E1,7.025303E1,3.0675951E1,3.9577076E1,2.8389542E1,2.2864106E0,8.09798E0,3.1479097E1],"tree_param":{"num_deleted":"0","num_feature":"41","num_nodes":"13","size_leaf_vector":"1"}},{"base_weights":[1.5177619E-2,4.944468E-2,-2.057678E-1,-1.4238927E-1,-2.6571247E-1,-2.5843535E-2,-4.6807727E-1,-4.1920415E-1,5.644725E-3,-1.500531E-1,1.3157724E-1,-1.390283E-1,-4.4662412E-2,-2.981521E-1,-4.518136E-2,2.1481016E-1,-2.2950526E-1,-1.8537713E-2,7.617941E-4,1.4781567E-2,-7.6957564E-3,-2.208927E-2,3.5194305E-5,-2.5363022E-2,-3.781831E-3,1.8271532E-2,5.3110307E-5,-1.7389236E-2,1.8985771E-3],"categories":[],"categories_nodes":[],"categories_segments":[],"categories_sizes":[],"default_left":[0,0,0,0,0,0,0,0,0,0,0,0,0,0,0,0,0,0,0,0,0,0,0,0,0,0,0,0,0],"id":56,"left_children":[1,-1,3,5,7,9,11,13,15,17,19,21,-1,23,-1,25,27,-1,-1,-1,-1,-1,-1,-1,-1,-1,-1,-1,-1],"loss_changes":[2.76641E1,0E0,3.6056185E-1,2.0044427E0,2.1989114E0,8.0546427E-1,1.8263798E0,1.7065911E0,1.0349604E0,8.4206593E-1,9.0051425E-1,3.8291517E-1,0E0,1.2855215E0,0E0,3.5769546E-1,3.2696146E-1,0E0,0E0,0E0,0E0,0E0,0E0,0E0,0E0,0E0,0E0,0E0,0E0],"parents":[2147483647,0,0,2,2,3,3,4,4,5,5,6,6,7,7,8,8,9,9,10,10,11,11,13,13,15,15,16,16],"right_children":[2,-1,4,6,8,10,12,14,16,18,20,22,-1,24,-1,26,28,-1,-1,-1,-1,-1,-1,-1,-1,-1,-1,-1,-1],"split_conditions":[2E0,4.944468E-2,4.5E0,2E0,2E0,3E0,3E0,1E0,6E0,1E0,1E0,7.799611E1,-4.4662412E-2,6E0,-4.518136E-2,2.6870239E0,2.9739563E0,-1.8537713E-2,7.617941E-4,1.4781567E-2,-7.6957564E-3,-2.208927E-2,3.5194305E-5,-2.5363022E-2,-3.781831E-3,1.8271532E-2,5.3110307E-5,-1.7389236E-2,1.8985771E-3],"split_indices":[40,0,40,39,39,40,40,39,40,39,39,15,0,40,0,26,28,0,0,0,0,0,0,0,0,0,0,0,0],"split_type":[0,0,0,0,0,0,0,0,0,0,0,0,0,0,0,0,0,0,0,0,0,0,0,0,0,0,0,0,0],"sum_hessian":[1.2664182E2,2.2778826E1,1.03863E2,5.212618E1,5.173682E1,3.9183807E1,1.2942369E1,3.2697063E1,1.9039755E1,2.1928438E1,1.7255371E1,8.043965E0,4.898404E0,2.7452469E1,5.244596E0,1.0122399E1,8.9173565E0,8.857904E0,1.3070534E1,1.0935772E1,6.3195996E0,1.8575535E0,6.186412E0,1.3492892E1,1.3959577E1,5.5217724E0,4.600627E0,5.9749594E0,2.942397E0],"tree_param":{"num_deleted":"0","num_feature":"41","num_nodes":"29","size_leaf_vector":"1"}},{"base_weights":[-1.5649864E-2,4.9282465E-2,-2.3441395E-1,-9.4713E-2,-2.724485E-1,-1.3765822E-1,7.044799E-2,-1.6614014E-1,-3.045495E-1,-1.58439E-1,-4.8757408E-2,1.2459401E-2,5.809307E-3,-2.3722863E-1,-8.313883E-2,-3.3559078E-1,-1.9319768E-1,-3.8178524E-3,-1.0913125E-2,-9.590629E-3,5.633277E-3,2.943039E-3,-2.2193464E-3,-6.3513974E-3,-1.3284671E-2,3.3507033E-4,-5.846609E-3,-1.4405513E-2,-2.0585634E-2,-1.3037592E-2,2.3135296E-3],"categories":[],"categories_nodes":[],"categories_segments":[],"categories_sizes":[],"default_left":[0,0,0,0,0,0,0,0,0,0,0,0,0,0,0,0,0,0,0,0,0,0,0,0,0,0,0,0,0,0,0],"id":57,"left_children":[1,-1,3,5,7,9,11,13,15,17,19,21,-1,23,25,27,29,-1,-1,-1,-1,-1,-1,-1,-1,-1,-1,-1,-1,-1,-1],"loss_changes":[2.7897596E1,0E0,5.29263E-1,1.7913069E-1,2.2779083E-1,2.792427E-2,1.3381369E-2,1.0489577E-1,1.4758825E-1,5.7953864E-2,1.3939542E-1,1.2070201E-2,0E0,2.4348497E-4,3.503961E-2,5.017805E-2,2.669204E-1,0E0,0E0,0E0,0E0,0E0,0E0,0E0,0E0,0E0,0E0,0E0,0E0,0E0,0E0],"parents":[2147483647,0,0,2,2,3,3,4,4,5,5,6,6,7,7,8,8,9,9,10,10,11,11,13,13,14,14,15,15,16,16],"right_children":[2,-1,4,6,8,10,12,14,16,18,20,22,-1,24,26,28,30,-1,-1,-1,-1,-1,-1,-1,-1,-1,-1,-1,-1,-1,-1],"split_conditions":[2E0,4.9282465E-2,-2.55928E1,2.2799164E-1,3.6684856E0,6E0,4.5E0,1.4978884E-1,3.080468E0,2.2601277E-1,2.2601277E-1,3E0,5.809307E-3,3E0,3E0,-1.5712418E-2,6E0,-3.8178524E-3,-1.0913125E-2,-9.590629E-3,5.633277E-3,2.943039E-3,-2.2193464E-3,-6.3513974E-3,-1.3284671E-2,3.3507033E-4,-5.846609E-3,-1.4405513E-2,-2.0585634E-2,-1.3037592E-2,2.3135296E-3],"split_indices":[40,0,21,0,6,40,40,0,36,0,0,40,0,40,40,5,40,0,0,0,0,0,0,0,0,0,0,0,0,0,0],"split_type":[0,0,0,0,0,0,0,0,0,0,0,0,0,0,0,0,0,0,0,0,0,0,0,0,0,0,0,0,0,0,0],"sum_hessian":[1.2530341E2,2.1839033E1,1.0346438E2,2.2887766E1,8.0576614E1,1.8296757E1,4.591008E0,2.0120249E1,6.0456364E1,1.4196169E1,4.100589E0,2.5854647E0,2.0055437E0,9.836988E0,1.028326E1,4.5702267E1,1.4754098E1,6.944378E0,7.251791E0,2.0741704E0,2.0264182E0,1.4039994E0,1.1814651E0,3.140656E0,6.696332E0,3.0299025E0,7.253358E0,3.1093048E1,1.4609217E1,1.143843E1,3.3156674E0],"tree_param":{"num_deleted":"0","num_feature":"41","num_nodes":"31","size_leaf_vector":"1"}},{"base_weights":[2.3683723E-2,-1.7909278E-1,4.9098033E-2,-2.5503707E-1,-4.353447E-2,-1.8896699E-1,-3.0202633E-1,2.1192785E-2,-1.0770153E-2,-2.97536E-1,-8.037317E-2,-3.7691674E-1,-1.1743494E-1,-1.9143881E-2,6.287457E-2,4.214651E-3,-1.7697755E-2,-6.0218344E-3,1.4381025E-3,-2.5730688E-2,-1.18467E-2,-8.132974E-3,-2.4049212E-3,-2.0113399E-3,1.0417968E-4,6.002382E-3,-3.2051844E-3],"categories":[],"categories_nodes":[],"categories_segments":[],"categories_sizes":[],"default_left":[0,0,0,0,0,0,0,0,0,0,0,0,0,0,0,0,0,0,0,0,0,0,0,0,0,0,0],"id":58,"left_children":[1,3,-1,5,7,9,11,13,-1,15,17,19,21,23,25,-1,-1,-1,-1,-1,-1,-1,-1,-1,-1,-1,-1],"loss_changes":[2.419141E1,1.0477362E0,0E0,1.4694309E-1,4.2881858E-1,3.295877E-1,4.6351194E-1,4.931201E-2,0E0,3.4485757E-1,7.4995846E-2,3.7300634E-1,2.9973328E-2,6.934748E-3,1.1155057E-1,0E0,0E0,0E0,0E0,0E0,0E0,0E0,0E0,0E0,0E0,0E0,0E0],"parents":[2147483647,0,0,1,1,3,3,4,4,5,5,6,6,7,7,9,9,10,10,11,11,12,12,13,13,14,14],"right_children":[2,4,-1,6,8,10,12,14,-1,16,18,20,22,24,26,-1,-1,-1,-1,-1,-1,-1,-1,-1,-1,-1,-1],"split_conditions":[4.7622505E1,3.0879593E0,4.9098033E-2,1E0,7.3706925E-2,2.3928352E-2,4.0256146E2,3.261792E0,-1.0770153E-2,3.5112941E0,2.6248045E-2,2E0,-2.0028472E-1,1E0,2E0,4.214651E-3,-1.7697755E-2,-6.0218344E-3,1.4381025E-3,-2.5730688E-2,-1.18467E-2,-8.132974E-3,-2.4049212E-3,-2.0113399E-3,1.0417968E-4,6.002382E-3,-3.2051844E-3],"split_indices":[13,34,0,39,1,1,9,22,0,6,1,39,4,39,39,0,0,0,0,0,0,0,0,0,0,0,0],"split_type":[0,0,0,0,0,0,0,0,0,0,0,0,0,0,0,0,0,0,0,0,0,0,0,0,0,0,0],"sum_hessian":[1.2259015E2,1.01851036E2,2.073911E1,6.4714455E1,3.7136585E1,2.8983374E1,3.573108E1,2.7613707E1,9.522878E0,1.3623294E1,1.536008E1,2.4677357E1,1.1053723E1,1.4308079E1,1.3305628E1,1.69023E0,1.1933064E1,1.1159775E1,4.200305E0,1.1091099E1,1.3586258E1,5.8755026E0,5.1782207E0,6.729437E0,7.5786424E0,9.212294E0,4.0933347E0],"tree_param":{"num_deleted":"0","num_feature":"41","num_nodes":"27","size_leaf_vector":"1"}},{"base_weights":[-2.9636323E-2,4.8935387E-2,-2.3022284E-1,-2.4239276E-1,1.672843E-2,-2.2005014E-1,-3.8958055E-1,7.590279E-3,-8.620228E-2,-1.63054E-1,-2.7184555E-1,-1.7712696E-1,-2.6209895E-2,2.6101216E-3,-7.740695E-3,5.5812165E-5,-2.9733768E-2,-2.2175858E-2,1.9777992E-3,-1.2437305E-2,-8.266167E-4],"categories":[],"categories_nodes":[],"categories_segments":[],"categories_sizes":[],"default_left":[0,0,0,0,0,0,0,0,0,0,0,0,0,0,0,0,0,0,0,0,0],"id":59,"left_children":[1,-1,3,5,7,9,11,-1,13,15,17,19,-1,-1,-1,-1,-1,-1,-1,-1,-1],"loss_changes":[2.542561E1,0E0,3.1880903E-1,2.4272108E-1,9.448065E-2,2.1844816E-1,2.4648285E-1,0E0,4.5689136E-2,3.1806111E0,2.4303777E0,6.6189304E-2,0E0,0E0,0E0,0E0,0E0,0E0,0E0,0E0,0E0],"parents":[2147483647,0,0,2,2,3,3,4,4,5,5,6,6,8,8,9,9,10,10,11,11],"right_children":[2,-1,4,6,8,10,12,-1,14,16,18,20,-1,-1,-1,-1,-1,-1,-1,-1,-1],"split_conditions":[2E0,4.8935387E-2,3.2883701E0,-2.0465973E1,1E0,4.5E0,1E0,7.590279E-3,3E0,2E0,2E0,2.0120937E-1,-2.6209895E-2,2.6101216E-3,-7.740695E-3,5.5812165E-5,-2.9733768E-2,-2.2175858E-2,1.9777992E-3,-1.2437305E-2,-8.266167E-4],"split_indices":[40,0,35,19,39,40,39,0,40,39,39,0,0,0,0,0,0,0,0,0,0],"split_type":[0,0,0,0,0,0,0,0,0,0,0,0,0,0,0,0,0,0,0,0,0],"sum_hessian":[1.235934E2,1.986305E1,1.0373035E2,9.887613E1,4.8542204E0,8.801133E1,1.08647995E1,1.8939435E0,2.9602768E0,4.387687E1,4.413446E1,5.1123114E0,5.752488E0,1.0603925E0,1.8998842E0,3.2509182E1,1.1367685E1,2.8176733E1,1.5957728E1,3.155964E0,1.9563476E0],"tree_param":{"num_deleted":"0","num_feature":"41","num_nodes":"21","size_leaf_vector":"1"}},{"base_weights":[-2.0826552E-2,4.8800718E-2,-2.1346617E-1,-1.4661062E-1,-2.808092E-1,-1.7021816E-2,-1.2152833E-1,-2.9867837E-1,-9.85742E-2,-9.8543175E-2,-2.924657E-1,-2.1987714E-1,-3.5355908E-1,-9.609415E-3,9.0152957E-4,-4.4953736E-4,-5.465738E-3,-1.8506339E-2,-1.7510839E-4,-1.8112253E-2,-4.7056815E-3,-1.2855287E-2,-2.0485317E-2],"categories":[],"categories_nodes":[],"categories_segments":[],"categories_sizes":[],"default_left":[0,0,0,0,0,0,0,0,0,0,0,0,0,0,0,0,0,0,0,0,0,0,0],"id":60,"left_children":[1,-1,3,5,7,-1,9,11,13,15,17,19,21,-1,-1,-1,-1,-1,-1,-1,-1,-1,-1],"loss_changes":[2.4064758E1,0E0,4.3126488E-1,2.2479713E-1,1.3723135E-1,0E0,1.6775429E-1,1.2171459E-1,6.965086E-2,4.3013185E-2,1.2037909E-1,3.5226524E-1,3.2984495E-2,0E0,0E0,0E0,0E0,0E0,0E0,0E0,0E0,0E0,0E0],"parents":[2147483647,0,0,2,2,3,3,4,4,6,6,7,7,8,8,9,9,10,10,11,11,12,12],"right_children":[2,-1,4,6,8,-1,10,12,14,16,18,20,22,-1,-1,-1,-1,-1,-1,-1,-1,-1,-1],"split_conditions":[4.618618E1,4.8800718E-2,2.7776102E2,2.7325814E0,1.6612187E-2,-1.7021816E-2,1.0118957E1,1E0,1E0,2.5859194E0,2E0,9.355804E0,1.8727878E-1,-9.609415E-3,9.0152957E-4,-4.4953736E-4,-5.465738E-3,-1.8506339E-2,-1.7510839E-4,-1.8112253E-2,-4.7056815E-3,-1.2855287E-2,-2.0485317E-2],"split_indices":[15,0,7,18,3,0,25,39,39,20,39,10,11,0,0,0,0,0,0,0,0,0,0],"split_type":[0,0,0,0,0,0,0,0,0,0,0,0,0,0,0,0,0,0,0,0,0,0,0],"sum_hessian":[1.2323207E2,1.9299185E1,1.03932884E2,5.3749523E1,5.018336E1,4.7179966E0,4.903153E1,4.5120106E1,5.0632534E0,4.4609573E1,4.4219546E0,2.0578558E1,2.454155E1,2.4489524E0,2.6143007E0,4.9866242E0,3.9622948E1,3.263884E0,1.1580704E0,8.77014E0,1.1808417E1,1.1082483E1,1.3459067E1],"tree_param":{"num_deleted":"0","num_feature":"41","num_nodes":"23","size_leaf_vector":"1"}},{"base_weights":[-4.0048547E-2,-2.2481284E-1,4.857626E-2,-2.4457836E-1,-9.935269E-2,-2.1631971E-1,-3.2575113E-1,2.059173E-2,-1.7608522E-1,-1.3262293E-1,-2.7644968E-1,-1.9469121E-2,-1.3025181E-1,6.464572E-2,-2.880379E-3,-1.0248187E-2,-8.236876E-2,-1.3498497E-2,8.7879546E-4,-6.0183476E-3,-1.7599802E-2,-1.0481395E-2,5.5195685E-3,9.911009E-4,4.7071646E-3,-5.6018303E-3,-1.1682045E-3],"categories":[],"categories_nodes":[],"categories_segments":[],"categories_sizes":[],"default_left":[0,0,0,0,0,0,0,0,0,0,0,0,0,0,0,0,0,0,0,0,0,0,0,0,0,0,0],"id":61,"left_children":[1,3,-1,5,7,9,11,13,15,17,19,-1,21,23,-1,-1,25,-1,-1,-1,-1,-1,-1,-1,-1,-1,-1],"loss_changes":[2.307048E1,2.340846E-1,0E0,1.3444376E-1,1.4964572E-1,3.1179714E-1,2.1165466E-1,2.8132286E-2,9.586781E-3,6.415568E-1,4.21865E-1,0E0,1.5077129E-1,4.749093E-3,0E0,0E0,4.342051E-3,0E0,0E0,0E0,0E0,0E0,0E0,0E0,0E0,0E0,0E0],"parents":[2147483647,0,0,1,1,3,3,4,4,5,5,6,6,7,7,8,8,9,9,10,10,12,12,13,13,16,16],"right_children":[2,4,-1,6,8,10,12,14,16,18,20,-1,22,24,-1,-1,26,-1,-1,-1,-1,-1,-1,-1,-1,-1,-1],"split_conditions":[4.7622505E1,3.1324823E0,4.857626E-2,1.3975049E1,1E0,1E0,2E0,2.255597E-1,2.255597E-1,2.8047253E2,2.8503788E0,-1.9469121E-2,7.973237E-2,1.116773E-2,-2.880379E-3,-1.0248187E-2,2E0,-1.3498497E-2,8.7879546E-4,-6.0183476E-3,-1.7599802E-2,-1.0481395E-2,5.5195685E-3,9.911009E-4,4.7071646E-3,-5.6018303E-3,-1.1682045E-3],"split_indices":[13,35,0,10,39,39,39,0,0,7,28,0,1,1,0,0,39,0,0,0,0,0,0,0,0,0,0],"split_type":[0,0,0,0,0,0,0,0,0,0,0,0,0,0,0,0,0,0,0,0,0,0,0,0,0,0,0],"sum_hessian":[1.2126719E2,1.0319614E2,1.8071049E1,8.8330696E1,1.4865445E1,6.823945E1,2.0091244E1,6.085127E0,8.780319E0,2.9869188E1,3.837026E1,1.4409495E1,5.681748E0,4.0032153E0,2.0819113E0,5.8045864E0,2.9757326E0,1.5185564E1,1.4683624E1,1.3360354E1,2.5009905E1,4.3693905E0,1.3123575E0,2.2524467E0,1.7507687E0,1.382054E0,1.5936786E0],"tree_param":{"num_deleted":"0","num_feature":"41","num_nodes":"27","size_leaf_vector":"1"}},{"base_weights":[4.0702866E-3,4.844263E-2,-1.7166443E-1,7.7800706E-2,-1.9641389E-1,1.22808605E-1,-2.0488447E-3,-2.60101E-1,-9.949368E-2,-1.0635561E-2,1.00357095E-2,-9.6755385E-2,-3.215616E-1,-1.4087684E-1,3.8673464E-2,2.890371E-3,-2.9816262E-3,-1.3617446E-2,6.9638304E-3,-2.261933E-2,-9.593246E-3,-1.0708429E-2,-4.343568E-3,1.23157585E-2,-9.920137E-3],"categories":[],"categories_nodes":[],"categories_segments":[],"categories_sizes":[],"default_left":[0,0,0,0,0,0,0,0,0,0,0,0,0,0,0,0,0,0,0,0,0,0,0,0,0],"id":62,"left_children":[1,-1,3,5,7,9,-1,11,13,15,-1,17,19,21,23,-1,-1,-1,-1,-1,-1,-1,-1,-1,-1],"loss_changes":[2.0380154E1,0E0,6.432059E-1,5.7933144E-2,5.469799E-1,7.934038E-2,0E0,5.249243E-1,2.2513235E-1,1.5812015E-2,0E0,7.247932E-1,5.887394E-1,9.9273264E-2,5.23417E-1,0E0,0E0,0E0,0E0,0E0,0E0,0E0,0E0,0E0,0E0],"parents":[2147483647,0,0,2,2,3,3,4,4,5,5,7,7,8,8,9,9,11,11,12,12,13,13,14,14],"right_children":[2,-1,4,6,8,10,-1,12,14,16,-1,18,20,22,24,-1,-1,-1,-1,-1,-1,-1,-1,-1,-1],"split_conditions":[2E0,4.844263E-2,4.0453205E0,6E0,8.227572E1,1E0,-2.0488447E-3,3E0,6E0,2.2587284E-1,1.00357095E-2,3.2248871E0,3.031023E0,-1.7176218E0,1E0,2.890371E-3,-2.9816262E-3,-1.3617446E-2,6.9638304E-3,-2.261933E-2,-9.593246E-3,-1.0708429E-2,-4.343568E-3,1.23157585E-2,-9.920137E-3],"split_indices":[40,0,14,40,15,39,0,40,40,0,0,32,36,23,39,0,0,0,0,0,0,0,0,0,0],"split_type":[0,0,0,0,0,0,0,0,0,0,0,0,0,0,0,0,0,0,0,0,0,0,0,0,0],"sum_hessian":[1.1822351E2,1.7520878E1,1.0070263E2,8.895532E0,9.18071E1,6.4264474E0,2.4690847E0,5.438596E1,3.742114E1,2.6871388E0,3.7393084E0,1.5572565E1,3.8813393E1,2.878114E1,8.640001E0,1.0460768E0,1.6410621E0,8.841305E0,6.7312603E0,1.8084017E1,2.0729378E1,1.0952134E1,1.7829006E1,4.585153E0,4.0548477E0],"tree_param":{"num_deleted":"0","num_feature":"41","num_nodes":"25","size_leaf_vector":"1"}},{"base_weights":[5.284134E-4,-1.6805334E-1,4.7149505E-2,-3.5422966E-1,-1.4351878E-1,-2.4343813E-2,-1.0060072E-2,9.6210174E-2,-1.572839E-1,8.68345E-3,4.772497E-4,-2.5042933E-1,-1.3629071E-1,-1.5591989E-2,-2.7000622E-3,-4.503697E-3,-8.525957E-3],"categories":[],"categories_nodes":[],"categories_segments":[],"categories_sizes":[],"default_left":[0,0,0,0,0,0,0,0,0,0,0,0,0,0,0,0,0],"id":63,"left_children":[1,3,-1,5,7,-1,-1,9,11,-1,-1,13,15,-1,-1,-1,-1],"loss_changes":[1.8675358E1,4.0461278E-1,0E0,1.23880506E-1,3.1140113E-1,0E0,0E0,3.5235044E-2,1.3263798E-1,0E0,0E0,1.5797639E-1,9.821224E-2,0E0,0E0,0E0,0E0],"parents":[2147483647,0,0,1,1,3,3,4,4,7,7,8,8,11,11,12,12],"right_children":[2,4,-1,6,8,-1,-1,10,12,-1,-1,14,16,-1,-1,-1,-1],"split_conditions":[-1.420438E1,2.6917858E0,4.7149505E-2,1E0,2.6947567E0,-2.4343813E-2,-1.0060072E-2,1E0,2.8787775E0,8.68345E-3,4.772497E-4,2E0,1E0,-1.5591989E-2,-2.7000622E-3,-4.503697E-3,-8.525957E-3],"split_indices":[19,34,0,39,16,0,0,39,18,0,0,39,39,0,0,0,0],"split_type":[0,0,0,0,0,0,0,0,0,0,0,0,0,0,0,0,0],"sum_hessian":[1.1554501E2,9.871005E1,1.6834963E1,9.928836E0,8.878121E1,4.149977E0,5.778858E0,4.4957247E0,8.428549E1,1.8438436E0,2.6518812E0,1.3492239E1,7.079325E1,9.831125E0,3.661114E0,3.1666836E1,3.9126415E1],"tree_param":{"num_deleted":"0","num_feature":"41","num_nodes":"17","size_leaf_vector":"1"}},{"base_weights":[-1.2827685E-2,-1.7276123E-1,4.8026137E-2,-8.627645E-2,-2.2296618E-1,-1.1766694E-1,6.4237225E-3,-1.7656183E-1,-3.1057233E-1,-1.4760058E-1,5.9681203E-2,-2.5687227E-1,-9.837794E-2,3.6028796E-3,-3.416783E-1,-2.5412047E-3,-1.0932288E-2,-1.6609783E-3,1.1594313E-2,-3.0200263E-3,-1.4778124E-2,-1.3694157E-3,-1.2129425E-2,-4.9686483E-3,-2.0622985E-2],"categories":[],"categories_nodes":[],"categories_segments":[],"categories_sizes":[],"default_left":[0,0,0,0,0,0,0,0,0,0,0,0,0,0,0,0,0,0,0,0,0,0,0,0,0],"id":64,"left_children":[1,3,-1,5,7,9,-1,11,13,15,17,19,21,-1,23,-1,-1,-1,-1,-1,-1,-1,-1,-1,-1],"loss_changes":[1.8364365E1,4.2039824E-1,0E0,2.7681068E-1,2.0303583E-1,1.9138256E-1,0E0,2.4965346E-1,2.703675E-1,1.9317919E-1,9.8548904E-2,1.4161265E-1,2.3707731E-1,0E0,2.894938E-1,0E0,0E0,0E0,0E0,0E0,0E0,0E0,0E0,0E0,0E0],"parents":[2147483647,0,0,1,1,3,3,4,4,5,5,7,7,8,8,9,9,10,10,11,11,12,12,14,14],"right_children":[2,4,-1,6,8,10,-1,12,14,16,18,20,22,-1,24,-1,-1,-1,-1,-1,-1,-1,-1,-1,-1],"split_conditions":[4.7622505E1,2.7290447E0,4.8026137E-2,3.1576858E0,2E0,2.5516044E-2,6.4237225E-3,-1.5879687E1,3.9887296E2,1E0,2E0,8.57968E0,2.3632998E-2,3.6028796E-3,1.1124675E-2,-2.5412047E-3,-1.0932288E-2,-1.6609783E-3,1.1594313E-2,-3.0200263E-3,-1.4778124E-2,-1.3694157E-3,-1.2129425E-2,-4.9686483E-3,-2.0622985E-2],"split_indices":[13,32,0,20,39,1,0,21,9,39,39,10,12,0,1,0,0,0,0,0,0,0,0,0,0],"split_type":[0,0,0,0,0,0,0,0,0,0,0,0,0,0,0,0,0,0,0,0,0,0,0,0,0],"sum_hessian":[1.1590282E2,1.0025258E2,1.5650234E1,3.7820377E1,6.2432205E1,3.3391556E1,4.428821E0,4.2784805E1,1.96474E1,2.8712982E1,4.678575E0,1.9977966E1,2.2806837E1,1.3781734E0,1.8269226E1,1.2881463E1,1.5831519E1,3.563331E0,1.1152439E0,3.7082648E0,1.6269701E1,1.6080774E1,6.726064E0,4.6737084E0,1.3595518E1],"tree_param":{"num_deleted":"0","num_feature":"41","num_nodes":"25","size_leaf_vector":"1"}},{"base_weights":[4.144976E-3,4.7926117E-2,-1.5281947E-1,-1.3477975E-1,-4.2066517E-1,-7.3774494E-2,-1.9844583E-1,-2.416858E-2,-6.811173E-3,3.744053E-2,-4.2657542E-1,-3.7486762E-1,1.054459E-1,8.442899E-3,-7.5211166E-3,-1.9080294E-3,-4.368898E-2,-1.2876319E-2,-4.311223E-2,1.8819151E-2,-3.2880714E-3],"categories":[],"categories_nodes":[],"categories_segments":[],"categories_sizes":[],"default_left":[0,0,0,0,0,0,0,0,0,0,0,0,0,0,0,0,0,0,0,0,0],"id":65,"left_children":[1,-1,3,5,7,9,11,-1,-1,13,15,17,19,-1,-1,-1,-1,-1,-1,-1,-1],"loss_changes":[1.7354053E1,0E0,4.2410445E-1,3.531673E-1,3.773856E-2,1.9759184E0,2.4921765E0,0E0,0E0,9.8574895E-1,2.0602887E0,1.4457936E0,8.403941E-1,0E0,0E0,0E0,0E0,0E0,0E0,0E0,0E0],"parents":[2147483647,0,0,2,2,3,3,4,4,5,5,6,6,9,9,10,10,11,11,12,12],"right_children":[2,-1,4,6,8,10,12,-1,-1,14,16,18,20,-1,-1,-1,-1,-1,-1,-1,-1],"split_conditions":[2E0,4.7926117E-2,-9.2278385E0,4.5E0,2E0,2E0,2E0,-2.416858E-2,-6.811173E-3,3.1307015E0,3E0,1E0,2.370731E-2,8.442899E-3,-7.5211166E-3,-1.9080294E-3,-4.368898E-2,-1.2876319E-2,-4.311223E-2,1.8819151E-2,-3.2880714E-3],"split_indices":[40,0,29,40,39,39,39,0,0,18,40,39,1,0,0,0,0,0,0,0,0],"split_type":[0,0,0,0,0,0,0,0,0,0,0,0,0,0,0,0,0,0,0,0,0],"sum_hessian":[1.1386778E2,1.5361282E1,9.85065E1,9.369896E1,4.8075356E0,4.89518E1,4.474716E1,3.3660953E0,1.4414405E0,3.78987E1,1.1053102E1,2.8163513E1,1.6583647E1,2.2358921E1,1.5539779E1,6.496212E0,4.55689E0,2.3930403E1,4.23311E0,5.9574785E0,1.0626169E1],"tree_param":{"num_deleted":"0","num_feature":"41","num_nodes":"21","size_leaf_vector":"1"}},{"base_weights":[-3.398795E-2,-1.8286169E-1,4.6433426E-2,-1.3382539E-1,-2.70421E-1,-3.8489383E-2,-1.5676609E-1,-7.427273E-3,-3.117105E-1,1.8139377E-2,-7.132248E-3,-8.348707E-3,-1.7422251E-3,-1.2351146E-2,-1.8971834E-2,4.2966226E-4,1.2162336E-3],"categories":[],"categories_nodes":[],"categories_segments":[],"categories_sizes":[],"default_left":[0,0,0,0,0,0,0,0,0,0,0,0,0,0,0,0,0],"id":66,"left_children":[1,3,-1,5,7,9,11,-1,13,15,-1,-1,-1,-1,-1,-1,-1],"loss_changes":[1.6754961E1,3.977263E-1,0E0,1.3997781E-1,1.3133359E-1,8.678003E-2,6.0750842E-2,0E0,1.7798424E-2,3.893415E-4,0E0,0E0,0E0,0E0,0E0,0E0,0E0],"parents":[2147483647,0,0,1,1,3,3,4,4,5,5,6,6,8,8,9,9],"right_children":[2,4,-1,6,8,10,12,-1,14,16,-1,-1,-1,-1,-1,-1,-1],"split_conditions":[3.7880176E2,2.542834E-2,4.6433426E-2,-1.8108248E0,1.9002563E-1,1.5395723E-1,1.8273395E-1,-7.427273E-3,2.6574066E-2,2.2635049E-1,-7.132248E-3,-8.348707E-3,-1.7422251E-3,-1.2351146E-2,-1.8971834E-2,4.2966226E-4,1.2162336E-3],"split_indices":[7,1,0,23,0,2,2,0,1,0,0,0,0,0,0,0,0],"split_type":[0,0,0,0,0,0,0,0,0,0,0,0,0,0,0,0,0],"sum_hessian":[1.1472571E2,1.0006137E2,1.4664333E1,6.576119E1,3.430018E1,1.3274274E1,5.2486923E1,9.843235E0,2.4456942E1,9.134011E0,4.140263E0,4.8090916E1,4.3960056E0,1.48861E1,9.570843E0,4.5307455E0,4.603266E0],"tree_param":{"num_deleted":"0","num_feature":"41","num_nodes":"17","size_leaf_vector":"1"}},{"base_weights":[-3.8536485E-2,4.758411E-2,-1.8881044E-1,-1.2479177E-1,-2.5175235E-1,7.362983E-3,-5.124355E-1,-3.880727E-1,-1.7677918E-2,-2.0929566E-2,3.7680335E-2,-2.3715091E-1,-4.3182902E-2,-2.6716885E-1,-4.382476E-2,2.4026853E-1,-3.2926518E-1,3.7149233E-3,-3.4092597E-3,-2.0780703E-2,-1.1424617E-3,-2.4365999E-2,-1.5263398E-3,-2.6602272E-3,1.537356E-2,5.0257905E-3,-2.0867681E-2],"categories":[],"categories_nodes":[],"categories_segments":[],"categories_sizes":[],"default_left":[0,0,0,0,0,0,0,0,0,0,0,0,0,0,0,0,0,0,0,0,0,0,0,0,0,0,0],"id":67,"left_children":[1,-1,3,5,7,9,11,13,15,-1,17,19,-1,21,-1,23,25,-1,-1,-1,-1,-1,-1,-1,-1,-1,-1],"loss_changes":[1.7061165E1,0E0,3.6884546E-1,2.6281657E0,1.5600464E0,5.21865E-1,1.0558405E0,1.5955491E0,1.6158792E0,0E0,1.5045173E-1,3.2277787E-1,0E0,1.3539841E0,0E0,2.340678E-1,3.85772E-1,0E0,0E0,0E0,0E0,0E0,0E0,0E0,0E0,0E0,0E0],"parents":[2147483647,0,0,2,2,3,3,4,4,5,5,6,6,7,7,8,8,10,10,11,11,13,13,15,15,16,16],"right_children":[2,-1,4,6,8,10,12,14,16,-1,18,20,-1,22,-1,24,26,-1,-1,-1,-1,-1,-1,-1,-1,-1,-1],"split_conditions":[2E0,4.758411E-2,4.5E0,2E0,2E0,1.5676412E-1,3E0,1E0,6E0,-2.0929566E-2,1.7397017E1,-1.9683243E0,-4.3182902E-2,6E0,-4.382476E-2,2.5804143E0,2.4703453E0,3.7149233E-3,-3.4092597E-3,-2.0780703E-2,-1.1424617E-3,-2.4365999E-2,-1.5263398E-3,-2.6602272E-3,1.537356E-2,5.0257905E-3,-2.0867681E-2],"split_indices":[40,0,40,39,39,11,40,39,40,0,13,33,0,40,0,20,26,0,0,0,0,0,0,0,0,0,0],"split_type":[0,0,0,0,0,0,0,0,0,0,0,0,0,0,0,0,0,0,0,0,0,0,0,0,0,0,0],"sum_hessian":[1.12447685E2,1.4113682E1,9.8334E1,5.0228687E1,4.8105312E1,3.8190025E1,1.2038663E1,2.998483E1,1.8120481E1,1.686597E0,3.6503426E1,7.6880574E0,4.350606E0,2.5275219E1,4.7096124E0,1.0038792E1,8.081691E0,2.734364E1,9.159788E0,3.682232E0,4.005825E0,1.2545068E1,1.2730151E1,1.9092817E0,8.12951E0,1.3506802E0,6.7310104E0],"tree_param":{"num_deleted":"0","num_feature":"41","num_nodes":"27","size_leaf_vector":"1"}},{"base_weights":[-1.9064417E-2,4.7417484E-2,-1.6479573E-1,2.1171808E-2,-2.1960123E-1,1.2114312E-1,-2.9515646E-2,-2.626797E-1,-8.660078E-2,-4.747364E-2,1.8847509E-1,-1.0650367E-1,8.470127E-2,-2.8931928E-1,-1.11648045E-1,3.0362615E-2,-1.7930888E-1,2.9558062E-3,-6.6469708E-3,1.111845E-2,1.1938576E-3,-9.9699665E-3,-2.035436E-3,8.969436E-3,-4.208414E-3,-1.0512472E-2,-1.7924478E-2,-1.930997E-3,-8.071723E-3,-4.806613E-3,1.5484204E-2,-5.8674305E-3,-1.5347038E-2],"categories":[],"categories_nodes":[],"categories_segments":[],"categories_sizes":[],"default_left":[0,0,0,0,0,0,0,0,0,0,0,0,0,0,0,0,0,0,0,0,0,0,0,0,0,0,0,0,0,0,0,0,0],"id":68,"left_children":[1,-1,3,5,7,9,11,13,15,17,19,21,23,25,27,29,31,-1,-1,-1,-1,-1,-1,-1,-1,-1,-1,-1,-1,-1,-1,-1,-1],"loss_changes":[1.5692836E1,0E0,9.8947024E-1,1.196494E-1,4.0535688E-1,9.866749E-2,1.4974897E-1,1.9279838E-1,2.1984538E-1,3.5679396E-2,2.7319103E-2,5.302167E-2,1.2704274E-1,1.8130422E-1,3.0185409E-2,3.6888462E-1,5.2351445E-2,0E0,0E0,0E0,0E0,0E0,0E0,0E0,0E0,0E0,0E0,0E0,0E0,0E0,0E0,0E0,0E0],"parents":[2147483647,0,0,2,2,3,3,4,4,5,5,6,6,7,7,8,8,9,9,10,10,11,11,12,12,13,13,14,14,15,15,16,16],"right_children":[2,-1,4,6,8,10,12,14,16,18,20,22,24,26,28,30,32,-1,-1,-1,-1,-1,-1,-1,-1,-1,-1,-1,-1,-1,-1,-1,-1],"split_conditions":[2E0,4.7417484E-2,1.30628785E-2,3E0,7.3375654E0,1E0,2.5516044E-2,3.9802413E0,1E0,2.5516044E-2,3.8951669E0,4.5E0,6E0,4.5E0,1E0,6E0,6E0,2.9558062E-3,-6.6469708E-3,1.111845E-2,1.1938576E-3,-9.9699665E-3,-2.035436E-3,8.969436E-3,-4.208414E-3,-1.0512472E-2,-1.7924478E-2,-1.930997E-3,-8.071723E-3,-4.806613E-3,1.5484204E-2,-5.8674305E-3,-1.5347038E-2],"split_indices":[40,0,3,40,14,39,1,6,39,1,6,40,40,40,39,40,40,0,0,0,0,0,0,0,0,0,0,0,0,0,0,0,0],"split_type":[0,0,0,0,0,0,0,0,0,0,0,0,0,0,0,0,0,0,0,0,0,0,0,0,0,0,0,0,0,0,0,0,0],"sum_hessian":[1.0920197E2,1.35755205E1,9.562645E1,2.1906477E1,7.371998E1,6.902539E0,1.5003939E1,5.4947575E1,1.87724E1,2.0539205E0,4.848618E0,9.002994E0,6.000945E0,4.5930546E1,9.017031E0,8.597731E0,1.0174669E1,1.0512041E0,1.0027163E0,3.729632E0,1.1189864E0,2.8908272E0,6.1121664E0,3.8050888E0,2.1958566E0,2.3316555E1,2.2613989E1,4.3751507E0,4.6418805E0,6.3691864E0,2.2285442E0,8.141648E0,2.033021E0],"tree_param":{"num_deleted":"0","num_feature":"41","num_nodes":"33","size_leaf_vector":"1"}},{"base_weights":[1.8761295E-3,4.7150932E-2,-1.2967055E-1,4.637785E-2,-1.4753425E-1,1.21200355E-2,-4.932262E-2,-1.6016375E-1,6.7111835E-2,6.573795E-2,-1.5203412E-1,-1.02492504E-1,-2.0242251E-1,1.225243E-1,-7.831661E-3,1.1052052E-2,-4.862834E-3,6.8642123E-4,-1.7019223E-2,-9.505737E-3,5.1710205E-3,-7.054217E-3,-2.1749703E-2,2.307148E-4,8.962469E-3,1.596901E-3,-2.1192569E-3],"categories":[],"categories_nodes":[],"categories_segments":[],"categories_sizes":[],"default_left":[0,0,0,0,0,0,0,0,0,0,0,0,0,0,0,0,0,0,0,0,0,0,0,0,0,0,0],"id":69,"left_children":[1,-1,3,5,7,-1,9,11,13,15,17,19,21,23,25,-1,-1,-1,-1,-1,-1,-1,-1,-1,-1,-1,-1],"loss_changes":[1.3818429E1,0E0,3.1485176E-1,1.954861E-1,2.5244117E-1,0E0,9.750486E-2,1.85184E-1,2.4460562E-2,1.2757656E-1,1.3624707E-1,7.009182E-1,6.1965525E-1,2.1335468E-2,5.9510334E-3,0E0,0E0,0E0,0E0,0E0,0E0,0E0,0E0,0E0,0E0,0E0,0E0],"parents":[2147483647,0,0,2,2,3,3,4,4,6,6,7,7,8,8,9,9,10,10,11,11,12,12,13,13,14,14],"right_children":[2,-1,4,6,8,-1,10,12,14,16,18,20,22,24,26,-1,-1,-1,-1,-1,-1,-1,-1,-1,-1,-1,-1],"split_conditions":[2E0,4.7150932E-2,1.2247925E-2,3E0,7.973237E-2,1.21200355E-2,1E0,1E0,4.5E0,2.4068126E-2,6E0,6E0,6E0,1E0,1E0,1.1052052E-2,-4.862834E-3,6.8642123E-4,-1.7019223E-2,-9.505737E-3,5.1710205E-3,-7.054217E-3,-2.1749703E-2,2.307148E-4,8.962469E-3,1.596901E-3,-2.1192569E-3],"split_indices":[40,0,3,40,1,0,39,39,40,1,40,40,40,39,39,0,0,0,0,0,0,0,0,0,0,0,0],"split_type":[0,0,0,0,0,0,0,0,0,0,0,0,0,0,0,0,0,0,0,0,0,0,0,0,0,0,0],"sum_hessian":[1.096275E2,1.2687424E1,9.694008E1,8.783335E0,8.8156746E1,2.3785176E0,6.4048176E0,8.349768E1,4.6590676E0,3.1905928E0,3.2142248E0,3.675833E1,4.6739346E1,2.3135574E0,2.34551E0,1.451481E0,1.7391118E0,2.2027502E0,1.0114746E0,2.5839542E1,1.091879E1,3.8256298E1,8.483049E0,1.1027343E0,1.210823E0,1.1256382E0,1.2198719E0],"tree_param":{"num_deleted":"0","num_feature":"41","num_nodes":"27","size_leaf_vector":"1"}},{"base_weights":[-1.914347E-2,4.6994444E-2,-1.4889827E-1,-9.1195986E-2,-2.512231E-1,-1.4266628E-1,3.6579017E-2,-6.913782E-2,-3.8258836E-1,2.797691E-2,-3.5166353E-1,-3.635154E-1,3.0197006E-1,-2.982736E-1,6.982543E-3,-1.1187104E-2,-2.387113E-2,4.8834165E-3,-6.702736E-3,-1.192194E-2,-3.9208896E-2,2.1209477E-3,-3.967864E-2,1.2980098E-3,2.2660391E-2,-1.8023217E-2,-5.266543E-3,8.992304E-3,-4.0341634E-3],"categories":[],"categories_nodes":[],"categories_segments":[],"categories_sizes":[],"default_left":[0,0,0,0,0,0,0,0,0,0,0,0,0,0,0,0,0,0,0,0,0,0,0,0,0,0,0,0,0],"id":70,"left_children":[1,-1,3,5,7,9,11,13,15,17,19,21,23,25,27,-1,-1,-1,-1,-1,-1,-1,-1,-1,-1,-1,-1,-1,-1],"loss_changes":[1.3840445E1,0E0,5.5477643E-1,4.2698509E-1,8.0378366E-1,1.6475277E0,2.1496456E0,2.7708942E-1,1.9359183E-1,3.090155E-1,8.2741857E-1,1.4503492E0,4.931656E-1,